/*!
 * The following copyright notice may not be removed under any circumstances.
 * 
 * Copyright:
 * © 2000, 2004 Adobe Systems Incorporated. All Rights Reserved. U.S. Patent
 * D454,582.
 * 
 * Trademark:
 * Myriad is either a registered trademark or a trademark of Adobe Systems
 * Incorporated in the United States and/or other countries.
 * 
 * Full name:
 * Myriad Pro
 * 
 * Designer:
 * Robert Slimbach and Carol Twombly
 * 
 * Vendor URL:
 * http://www.adobe.com/type
 * 
 * License information:
 * http://www.adobe.com/type/legal.html
 */
Cufon.registerFont({"w":300,"face":{"font-family":"Myriad Pro","font-weight":400,"font-stretch":"normal","units-per-em":"1000","panose-1":"2 11 5 3 3 4 3 2 2 4","ascent":"750","descent":"-250","x-height":"11","bbox":"-157 -952 1126 250","underline-thickness":"50","underline-position":"-50","stemh":"67","stemv":"88","unicode-range":"U+0020-U+FB04"},"glyphs":{" ":{"w":212},"!":{"d":"149,-194r-68,0r-14,-480r96,0xm174,-51v0,35,-23,62,-60,62v-34,0,-58,-27,-58,-62v0,-36,25,-62,59,-62v36,0,59,26,59,62","w":230},"\"":{"d":"51,-692r87,0r-17,240r-54,0xm200,-692r87,0r-17,240r-53,0","w":337},"#":{"d":"188,-255r104,0r19,-145r-104,0xm153,0r-60,0r26,-196r-82,0r0,-59r91,0r19,-145r-86,0r0,-59r95,0r26,-191r58,0r-25,191r104,0r26,-191r59,0r-25,191r82,0r0,59r-91,0r-18,145r86,0r0,59r-95,0r-26,196r-60,0r26,-196r-104,0","w":497},"$":{"d":"281,86r-63,0r0,-101v-58,-1,-118,-19,-153,-44r24,-67v36,24,88,43,144,43v71,0,119,-41,119,-98v0,-55,-39,-89,-113,-119v-102,-40,-165,-86,-165,-173v0,-83,59,-146,151,-161r0,-101r62,0r0,97v60,2,101,18,130,35r-25,66v-21,-12,-62,-34,-126,-34v-77,0,-106,46,-106,86v0,52,37,78,124,114v103,42,155,94,155,183v0,79,-55,153,-158,170r0,104","w":513},"%":{"d":"30,-458v0,-130,71,-203,158,-203v90,0,150,70,150,194v0,137,-72,205,-156,205v-81,0,-152,-66,-152,-196xm268,-463v0,-79,-23,-146,-85,-145v-54,0,-83,65,-83,147v0,82,29,146,84,146v58,0,84,-62,84,-148xm231,12r-55,0r382,-674r56,0xm454,-188v0,-131,71,-204,158,-204v90,0,149,70,149,194v0,137,-72,205,-155,205v-81,0,-152,-65,-152,-195xm692,-194v0,-79,-23,-146,-85,-145v-54,0,-84,65,-84,147v-1,83,31,146,85,146v58,0,84,-62,84,-148","w":792},"&":{"d":"602,0r-104,0r-63,-66v-58,54,-123,77,-197,77v-131,0,-207,-88,-207,-189v0,-92,55,-155,132,-197r0,-3v-35,-44,-56,-93,-56,-141v0,-82,59,-166,171,-166v84,0,149,56,149,143v0,71,-41,127,-148,180r0,3r164,188v31,-47,52,-112,65,-197r80,0v-18,106,-47,190,-97,249xm115,-191v0,77,57,136,139,136v57,0,106,-26,138,-61r-190,-212v-36,23,-87,66,-87,137xm350,-538v0,-41,-23,-88,-79,-87v-55,0,-84,46,-84,98v0,48,22,85,51,121v68,-39,112,-75,112,-132","w":605},"'":{"d":"51,-692r87,0r-17,240r-54,0","w":188},"(":{"d":"195,-694r69,0v-73,98,-126,228,-126,409v0,178,55,306,126,406r-69,0v-63,-83,-131,-211,-131,-406v1,-197,68,-325,131,-409","w":284},")":{"d":"88,121r-68,0v71,-99,126,-229,126,-409v0,-179,-54,-307,-126,-406r68,0v64,82,131,210,131,407v0,196,-67,323,-131,408","w":284},"*":{"d":"269,-685r60,34r-95,125r0,2r151,-20r0,68r-151,-18r0,2r96,120r-63,36r-60,-140r-2,0r-65,141r-57,-36r95,-122r0,-2r-148,19r0,-68r147,19r0,-2r-94,-122r61,-35r62,139r2,0","w":415},"+":{"d":"266,-532r64,0r0,235r226,0r0,60r-226,0r0,237r-64,0r0,-237r-226,0r0,-60r226,0r0,-235","w":596},",":{"d":"79,117r-62,6v21,-59,48,-166,59,-239r98,-10v-23,85,-67,196,-95,243","w":207},"-":{"d":"30,-303r247,0r0,65r-247,0r0,-65","w":307},".":{"d":"171,-52v0,36,-23,63,-61,63v-34,0,-58,-27,-58,-63v0,-37,25,-63,60,-63v35,0,59,26,59,63","w":207},"\/":{"d":"66,40r-67,0r279,-725r68,0","w":343},"0":{"d":"262,-661v137,0,215,122,215,329v0,221,-82,343,-226,343v-127,0,-215,-119,-215,-334v0,-218,94,-338,226,-338xm257,-593v-77,0,-133,94,-133,271v0,169,52,265,132,265v90,0,133,-105,133,-271v0,-160,-41,-265,-132,-265","w":513},"1":{"d":"236,0r0,-568v-41,18,-76,41,-115,61r-17,-67r142,-76r75,0r0,650r-85,0","w":513},"2":{"d":"460,0r-415,0r0,-54r69,-67v166,-158,241,-242,242,-340v0,-66,-32,-127,-129,-127v-59,0,-108,30,-138,55r-28,-62v45,-38,109,-66,184,-66v140,0,199,96,199,189v0,120,-87,217,-224,349r-52,48r0,2r292,0r0,73","w":513},"3":{"d":"42,-33r24,-68v25,16,83,41,144,41v113,0,148,-72,147,-126v-1,-91,-83,-130,-168,-130r-49,0r0,-66r49,0v64,0,145,-33,145,-110v0,-52,-33,-98,-114,-98v-52,0,-102,23,-130,43r-23,-64v34,-25,100,-50,170,-50v128,0,186,76,186,155v0,67,-40,124,-120,153r0,2v80,16,145,76,145,167v0,104,-81,195,-237,195v-73,0,-137,-23,-169,-44","w":513},"4":{"d":"400,0r-83,0r0,-177r-302,0r0,-58r290,-415r95,0r0,404r91,0r0,69r-91,0r0,177xm104,-246r213,0r0,-217v0,-34,1,-68,3,-102r-3,0v-20,38,-34,68,-54,96r-159,221r0,2","w":513},"5":{"d":"160,-409v153,-19,286,45,286,198v0,127,-101,222,-242,222v-71,0,-131,-20,-162,-40r22,-67v27,16,80,36,139,36v83,0,154,-54,154,-141v0,-84,-57,-144,-187,-144v-37,0,-66,4,-90,7r42,-312r311,0r0,74r-248,0","w":513},"6":{"d":"416,-660r0,72v-172,-6,-279,112,-292,235r3,0v31,-41,85,-75,157,-75v115,0,196,83,196,210v0,119,-81,229,-216,229v-139,0,-230,-108,-230,-277v0,-246,141,-388,382,-394xm121,-243v2,107,51,186,144,186v75,0,126,-63,126,-156v0,-93,-53,-149,-134,-149v-53,0,-102,33,-126,80v-6,10,-10,23,-10,39","w":513},"7":{"d":"57,-650r410,0r0,58r-283,592r-91,0r282,-577r-318,0r0,-73","w":513},"8":{"d":"166,-339r-1,-3v-72,-34,-103,-90,-103,-146v0,-103,87,-173,201,-173v126,0,189,79,189,160v0,55,-27,114,-107,152r0,3v81,32,131,89,131,168v0,113,-97,189,-221,189v-136,0,-218,-81,-218,-176v0,-82,49,-140,129,-174xm257,-53v79,0,130,-50,130,-116v0,-79,-55,-117,-143,-142v-76,22,-117,72,-117,134v0,66,47,124,130,124xm258,-598v-73,0,-113,48,-113,104v0,65,49,100,124,120v56,-19,99,-59,99,-118v0,-52,-31,-106,-110,-106","w":513},"9":{"d":"96,10r0,-72v168,6,269,-85,293,-239r-3,0v-36,44,-88,70,-153,70v-117,0,-192,-88,-192,-199v0,-123,89,-231,222,-231v133,0,215,108,215,274v0,143,-48,243,-112,305v-67,65,-158,94,-270,92xm389,-398v0,-111,-41,-197,-134,-196v-74,0,-127,66,-127,158v0,81,49,138,125,138v59,0,105,-29,128,-68v5,-8,8,-18,8,-32","w":513},":":{"d":"171,-404v0,35,-23,62,-61,62v-34,0,-58,-27,-58,-62v0,-37,25,-64,60,-64v35,0,59,27,59,64xm171,-51v0,35,-23,62,-61,62v-34,0,-58,-27,-58,-62v0,-37,25,-63,60,-63v35,0,59,26,59,63","w":207},";":{"d":"78,117r-61,6v22,-59,49,-166,60,-239r97,-10v-24,85,-68,196,-96,243xm178,-404v0,35,-23,62,-60,62v-34,0,-58,-27,-58,-62v0,-37,25,-64,59,-64v36,0,59,27,59,64","w":207},"<":{"d":"66,-239r0,-54r464,-239r0,69r-391,196r0,2r391,196r0,69","w":596},"=":{"d":"556,-337r-516,0r0,-60r516,0r0,60xm556,-141r-516,0r0,-60r516,0r0,60","w":596},">":{"d":"530,-294r0,56r-464,238r0,-69r394,-196r0,-2r-394,-196r0,-69","w":596},"?":{"d":"219,-192r-78,0v-10,-76,3,-127,60,-198v44,-55,70,-93,70,-138v0,-51,-32,-85,-95,-86v-36,0,-76,12,-101,31r-24,-63v34,-24,90,-40,143,-40v115,0,167,71,167,147v0,68,-39,117,-86,174v-51,61,-62,101,-56,173xm238,-51v0,35,-23,62,-61,62v-34,0,-58,-27,-58,-62v0,-37,25,-63,60,-63v35,0,59,26,59,63","w":406},"@":{"d":"448,-255r21,-113v-113,-33,-210,59,-209,173v0,44,22,76,66,76v58,0,111,-74,122,-136xm508,22r16,43v-55,29,-111,40,-178,40v-164,0,-303,-120,-303,-313v0,-206,143,-385,365,-385v174,0,291,123,291,290v0,150,-84,238,-178,238v-40,0,-77,-27,-74,-88r-4,0v-35,59,-81,88,-141,88v-58,0,-108,-47,-108,-126v0,-124,98,-237,237,-237v43,0,81,9,107,21r-34,181v-15,76,-3,111,30,112v51,1,108,-67,108,-183v0,-145,-87,-250,-242,-250v-163,0,-300,130,-300,333v0,167,109,271,257,271v57,0,110,-12,151,-35","w":737},"A":{"d":"424,-212r-239,0r-70,212r-90,0r229,-674r105,0r230,674r-93,0xm203,-280r203,0r-66,-194v-15,-44,-25,-84,-35,-123r-2,0v-26,110,-66,214,-100,317","w":612},"B":{"d":"76,-2r0,-663v38,-8,98,-14,159,-14v87,0,142,16,185,49v34,27,56,66,56,119v0,65,-43,122,-114,148r0,2v64,16,139,69,139,169v0,58,-22,103,-57,135v-46,44,-123,63,-233,63v-60,0,-106,-4,-135,-8xm163,-606r0,217r79,0v92,0,146,-48,146,-113v0,-79,-60,-110,-148,-110v-40,0,-63,3,-77,6xm163,-323r0,257v113,14,246,-3,246,-127v0,-92,-79,-130,-174,-130r-72,0","w":542},"C":{"d":"529,-91r18,69v-32,16,-96,33,-178,33v-190,0,-333,-121,-333,-342v0,-211,143,-354,352,-354v84,0,137,18,160,30r-21,71v-33,-16,-80,-28,-136,-28v-158,0,-263,101,-263,278v0,165,95,271,259,271v53,0,107,-11,142,-28","w":580},"D":{"d":"629,-353v0,236,-144,361,-395,359v-62,0,-114,-3,-158,-8r0,-663v53,-8,116,-14,185,-14v125,0,214,29,273,84v60,55,95,133,95,242xm163,-601r0,532v22,4,54,5,88,5v186,0,287,-104,287,-286v0,-159,-89,-260,-273,-260v-45,0,-79,4,-102,9","w":666},"E":{"d":"425,-388r0,72r-262,0r0,243r292,0r0,73r-379,0r0,-674r364,0r0,73r-277,0r0,213r262,0","w":492},"F":{"d":"76,0r0,-674r363,0r0,73r-276,0r0,224r255,0r0,72r-255,0r0,305r-87,0","w":487},"G":{"d":"589,-354r0,324v-39,14,-116,37,-207,37v-102,0,-186,-26,-252,-89v-58,-56,-94,-146,-94,-251v1,-201,139,-348,365,-348v78,0,139,17,168,31r-21,71v-36,-16,-81,-29,-149,-29v-164,0,-271,102,-271,271v0,171,103,272,260,272v57,0,96,-8,116,-18r0,-201r-137,0r0,-70r222,0","w":646},"H":{"d":"76,-674r87,0r0,282r326,0r0,-282r88,0r0,674r-88,0r0,-316r-326,0r0,316r-87,0r0,-674","w":652},"I":{"d":"76,-674r87,0r0,674r-87,0r0,-674","w":239},"J":{"d":"214,-230r0,-444r87,0r0,451v0,179,-88,234,-204,234v-32,0,-71,-7,-93,-16r13,-71v18,7,44,13,73,13v78,0,124,-35,124,-167","w":370},"K":{"d":"76,0r0,-674r87,0r0,325r3,0v82,-115,172,-215,259,-325r108,0r-244,286r263,388r-103,0r-222,-331r-64,74r0,257r-87,0","w":542},"L":{"d":"76,0r0,-674r87,0r0,601r288,0r0,73r-375,0","w":472},"M":{"d":"661,0r-17,-296v-5,-94,-11,-207,-10,-291r-3,0v-55,187,-138,397,-204,583r-66,0r-109,-321v-32,-95,-59,-182,-78,-262r-2,0v-2,84,-7,197,-13,298r-18,289r-83,0r47,-674r111,0r115,326v28,83,51,157,68,227r3,0v46,-178,129,-380,191,-553r111,0r42,674r-85,0","w":804},"N":{"d":"158,0r-82,0r0,-674r95,0r216,341v50,79,89,150,121,219r2,-1v-15,-169,-8,-372,-10,-559r82,0r0,674r-88,0r-214,-342v-47,-75,-92,-152,-126,-225r-3,1v10,163,6,383,7,566","w":658},"O":{"d":"349,-685v184,0,303,141,303,341v0,232,-141,355,-313,355v-178,0,-303,-138,-303,-342v0,-214,133,-354,313,-354xm345,-614v-144,0,-216,133,-216,281v0,144,78,273,215,273v138,0,216,-127,216,-280v0,-134,-70,-274,-215,-274","w":689},"P":{"d":"491,-482v2,172,-155,239,-328,212r0,270r-87,0r0,-666v42,-7,97,-13,167,-13v86,0,149,20,189,56v37,32,59,81,59,141xm163,-603r0,262v19,5,43,7,72,7v105,0,169,-51,169,-144v0,-89,-63,-132,-159,-132v-38,0,-67,3,-82,7","w":532},"Q":{"d":"657,26r-25,73v-91,-24,-180,-51,-258,-78v-14,-5,-28,-10,-41,-10v-160,-6,-297,-124,-297,-341v0,-216,132,-355,314,-355v183,0,302,142,302,341v0,173,-80,284,-192,323r0,4v67,17,140,33,197,43xm129,-332v0,143,78,273,215,272v138,0,216,-126,216,-280v0,-135,-70,-274,-213,-274v-147,0,-218,136,-218,282","w":689},"R":{"d":"76,0r0,-665v44,-9,107,-14,167,-14v93,0,153,17,195,55v34,30,53,76,53,128v0,89,-56,148,-127,172r0,3v52,18,83,66,99,136v22,94,38,159,52,185r-90,0v-11,-20,-26,-77,-45,-161v-20,-93,-56,-131,-135,-131r-82,0r0,292r-87,0xm163,-604r0,246r89,0v93,0,152,-51,152,-128v0,-87,-63,-125,-155,-126v-42,0,-72,4,-86,8","w":538},"S":{"d":"42,-33r22,-73v39,24,96,44,156,44v89,0,141,-47,141,-115v0,-63,-36,-100,-127,-134v-110,-40,-178,-96,-178,-191v0,-105,87,-183,218,-183v69,0,119,16,149,33r-24,71v-22,-12,-67,-32,-128,-32v-92,0,-127,55,-127,101v0,63,41,94,134,130v114,44,172,99,172,198v0,104,-77,195,-236,195v-65,0,-136,-20,-172,-44","w":493},"T":{"d":"204,0r0,-600r-205,0r0,-74r499,0r0,74r-206,0r0,600r-88,0","w":497},"U":{"d":"75,-674r88,0r0,399v0,151,67,215,157,215v100,0,164,-66,164,-215r0,-399r88,0r0,393v0,207,-109,292,-255,292v-138,0,-242,-79,-242,-288r0,-397","w":647},"V":{"d":"320,0r-96,0r-220,-674r94,0r105,332v29,91,54,173,72,252r2,0v50,-191,129,-396,191,-584r93,0","w":558},"W":{"d":"277,0r-91,0r-171,-674r92,0r80,341v20,84,38,168,50,233r2,0v34,-179,100,-394,145,-574r91,0r82,342v19,80,37,160,47,231r2,0v14,-74,33,-149,54,-233r89,-340r89,0r-191,674r-91,0r-85,-351v-21,-86,-35,-152,-44,-220r-2,0v-33,180,-102,391,-148,571","w":846},"X":{"d":"546,0r-101,0r-86,-149v-35,-57,-57,-94,-78,-133r-2,0v-19,39,-40,74,-73,134r-81,148r-100,0r206,-341r-198,-333r101,0r89,158v25,44,44,78,62,114r3,0v44,-91,103,-183,153,-272r100,0r-205,328","w":571},"Y":{"d":"314,0r-88,0r0,-286r-213,-388r99,0r95,186v26,51,46,92,67,139r2,0v19,-44,42,-88,68,-139r97,-186r99,0r-226,387r0,287","w":541},"Z":{"d":"30,0r0,-51r374,-547r0,-3r-342,0r0,-73r455,0r0,53r-372,545r0,3r377,0r0,73r-492,0","w":553},"[":{"d":"265,112r-183,0r0,-798r183,0r0,55r-115,0r0,688r115,0r0,55","w":284},"\\":{"d":"342,40r-68,0r-272,-725r68,0","w":341},"]":{"d":"19,-686r183,0r0,798r-183,0r0,-55r115,0r0,-688r-115,0r0,-55","w":284},"^":{"d":"536,-189r-70,0r-167,-388r-2,0r-167,388r-70,0r207,-461r62,0","w":596},"_":{"d":"0,75r500,0r0,50r-500,0r0,-50","w":500},"`":{"d":"22,-693r97,0r87,143r-62,0"},"a":{"d":"413,-297v0,99,-6,211,8,297r-80,0r-7,-61r-3,0v-27,38,-79,72,-148,72v-98,0,-148,-69,-148,-139v0,-117,104,-181,291,-180r0,-10v0,-40,-11,-112,-110,-112v-45,0,-92,14,-126,36r-20,-58v40,-26,98,-43,159,-43v148,0,184,101,184,198xm323,-135v10,-31,3,-74,5,-112v-96,-2,-205,15,-205,109v0,57,38,84,83,84v63,0,103,-40,117,-81","w":482},"b":{"d":"73,-125r0,-585r87,0r0,304r2,0v31,-54,87,-89,165,-89v120,0,204,100,204,247v0,173,-109,259,-217,259v-70,0,-126,-27,-162,-91r-3,0r-4,80r-76,0v2,-33,4,-82,4,-125xm299,-425v-70,0,-136,56,-139,144r0,87v4,83,63,135,136,135v92,0,147,-75,147,-186v0,-97,-50,-180,-144,-180","w":569},"c":{"d":"403,-84r15,66v-23,12,-74,29,-139,29v-146,0,-241,-100,-241,-248v0,-149,102,-257,260,-257v52,0,98,13,122,25r-20,68v-21,-12,-54,-23,-102,-23v-111,0,-171,82,-171,183v0,112,72,181,168,181v50,0,83,-13,108,-24","w":448},"d":{"d":"403,-710r88,0r0,585v0,43,1,92,4,125r-79,0r-4,-84r-2,0v-27,54,-86,95,-165,95v-117,0,-207,-99,-207,-246v-1,-161,99,-260,217,-260v74,0,124,35,146,74r2,0r0,-289xm270,-60v69,0,133,-54,133,-143r0,-84v-1,-82,-53,-139,-131,-139v-91,0,-145,80,-145,187v0,98,48,179,143,179","w":564},"e":{"d":"462,-226r-340,0v2,119,78,168,166,168v63,0,101,-11,134,-25r15,63v-31,14,-84,31,-161,31v-149,0,-238,-99,-238,-245v0,-146,86,-261,227,-261v158,0,200,139,200,228v0,18,-2,32,-3,41xm123,-289r257,0v1,-56,-23,-143,-122,-143v-89,0,-128,82,-135,143","w":501},"f":{"d":"169,0r-87,0r0,-417r-68,0r0,-67r68,0v-2,-81,11,-147,56,-192v48,-49,131,-55,193,-31r-12,68v-13,-6,-31,-11,-56,-11v-84,1,-97,80,-94,166r117,0r0,67r-117,0r0,417","w":292},"g":{"d":"490,-484v-7,116,-3,285,-4,414v0,111,-22,178,-69,221v-47,43,-115,58,-176,58v-58,0,-122,-14,-161,-40r22,-67v32,20,82,38,142,38v90,0,156,-47,156,-169r0,-54r-2,0v-27,45,-79,81,-154,81v-120,0,-206,-102,-206,-236v0,-164,107,-257,218,-257v84,0,130,44,151,84r2,0r4,-73r77,0xm270,-69v67,0,130,-54,129,-137v-1,-43,5,-92,-5,-127v-15,-51,-59,-93,-123,-93v-84,0,-144,71,-144,183v0,95,48,174,143,174","w":559},"h":{"d":"163,-408v26,-47,83,-87,153,-87v65,0,169,40,169,207r0,288r-88,0r0,-278v0,-78,-29,-144,-112,-144v-57,0,-102,40,-118,88v-5,12,-6,25,-6,42r0,292r-88,0r0,-710r88,0r0,302r2,0","w":555},"i":{"d":"161,0r-88,0r0,-484r88,0r0,484xm117,-675v33,0,54,24,54,55v0,30,-21,54,-56,54v-31,0,-53,-24,-53,-54v0,-31,23,-55,55,-55","w":234},"j":{"d":"-36,211r-9,-69v40,-3,75,-14,96,-37v24,-27,33,-66,33,-182r0,-407r88,0r0,441v0,94,-15,155,-58,199v-39,39,-103,55,-150,55xm129,-675v32,0,53,24,53,55v0,29,-20,54,-55,54v-33,0,-54,-25,-54,-54v0,-31,23,-55,56,-55","w":243},"k":{"d":"160,-710r0,448r2,0v57,-77,124,-148,185,-222r106,0r-187,199r213,285r-107,0r-167,-232r-45,50r0,182r-87,0r0,-710r87,0","w":469},"l":{"d":"73,0r0,-710r88,0r0,710r-88,0","w":236},"m":{"d":"275,-423v-69,0,-116,59,-116,131r0,292r-86,0r0,-353v0,-50,-1,-91,-4,-131r77,0r4,78r3,0v27,-46,72,-89,152,-89v66,0,116,40,137,97r2,0v34,-57,78,-97,161,-97v64,0,159,42,159,210r0,285r-86,0r0,-274v0,-93,-34,-149,-105,-149v-64,0,-111,52,-111,124r0,299r-86,0r0,-290v0,-77,-34,-133,-101,-133","w":834},"n":{"d":"285,-422v-71,0,-124,53,-124,131r0,291r-88,0r0,-353v0,-50,-1,-91,-4,-131r78,0r5,80r2,0v24,-46,80,-91,160,-91v67,0,171,40,171,206r0,289r-88,0r0,-279v0,-78,-29,-143,-112,-143","w":555},"o":{"d":"278,-495v139,0,233,101,233,249v0,179,-124,257,-241,257v-131,0,-232,-96,-232,-249v0,-162,106,-257,240,-257xm276,-429v-104,0,-149,96,-149,188v0,106,61,186,147,186v84,0,147,-79,147,-188v0,-82,-41,-186,-145,-186","w":549},"p":{"d":"73,198r0,-524v0,-62,-2,-112,-4,-158r79,0r4,83r2,0v36,-59,93,-94,172,-94v117,0,205,99,205,246v0,174,-106,260,-220,260v-64,0,-120,-28,-149,-76r-2,0r0,263r-87,0xm299,-425v-71,0,-134,60,-139,145r0,83v1,86,63,139,136,139v93,0,147,-76,147,-187v0,-97,-51,-180,-144,-180","w":569},"q":{"d":"403,198r0,-273r-2,0v-26,48,-80,86,-158,86v-113,0,-205,-98,-205,-245v0,-181,117,-261,219,-261v75,0,125,37,149,84r2,0r3,-73r83,0v-2,41,-3,83,-3,133r0,549r-88,0xm270,-59v69,0,133,-55,133,-138r0,-91v-1,-81,-52,-137,-130,-137v-91,0,-146,77,-146,186v0,96,46,180,143,180","w":563},"r":{"d":"312,-409v-95,-18,-152,53,-152,151r0,258r-87,0r0,-333v0,-57,-1,-106,-4,-151r77,0r3,95r4,0v27,-72,82,-117,159,-103r0,83","w":327},"s":{"d":"39,-23r22,-67v26,17,72,35,116,35v64,0,94,-32,94,-72v0,-42,-25,-65,-90,-89v-87,-31,-128,-79,-128,-137v0,-78,63,-142,167,-142v49,0,92,14,119,30r-22,64v-19,-12,-54,-28,-99,-28v-52,0,-81,30,-81,66v0,40,29,58,92,82v84,32,127,74,127,146v0,85,-66,146,-181,146v-53,0,-102,-14,-136,-34","w":396},"t":{"d":"222,11v-93,0,-129,-61,-129,-164r0,-264r-75,0r0,-67r75,0r0,-89r86,-27r0,116r126,0r0,67r-126,0r0,261v0,60,17,94,66,94v24,0,38,-2,51,-6r4,66v-17,7,-44,13,-78,13","w":331},"u":{"d":"478,-484r0,352v0,50,1,94,4,132r-78,0r-5,-79r-2,0v-23,39,-74,90,-160,90v-76,0,-167,-42,-167,-212r0,-283r88,0r0,268v0,92,28,154,108,154v59,0,100,-41,116,-80v5,-13,8,-29,8,-45r0,-297r88,0","w":551},"v":{"d":"13,-484r94,0r95,272v16,44,29,84,39,124r3,0v11,-40,25,-80,41,-124r94,-272r92,0r-190,484r-84,0","w":481},"w":{"d":"18,-484r90,0r64,246v14,54,27,104,36,154r3,0v32,-134,82,-270,122,-400r74,0r75,242v18,58,32,109,43,158r3,0v24,-132,72,-272,106,-400r87,0r-156,484r-80,0r-74,-231v-17,-54,-31,-102,-43,-159r-2,0v-30,141,-80,260,-122,390r-80,0","w":736},"x":{"d":"16,-484r98,0r69,104v18,27,33,52,49,79r3,0v37,-66,76,-122,116,-183r95,0r-165,234r170,250r-100,0r-71,-109v-19,-28,-35,-55,-52,-84r-2,0v-16,30,-33,55,-51,84r-70,109r-97,0r172,-247","w":463},"y":{"d":"36,147v69,-24,131,-77,158,-162v0,-5,-2,-12,-6,-23r-179,-446r96,0r106,286v11,32,23,70,31,99r2,0v9,-29,19,-66,31,-101r96,-284r93,0r-132,345v-63,166,-106,251,-166,303v-43,38,-86,53,-108,57","w":471},"z":{"d":"18,0r0,-51r219,-285r63,-75r0,-2r-262,0r0,-71r369,0r-1,55r-216,281v-20,27,-40,51,-62,76r0,2r283,0r0,70r-393,0","w":428},"{":{"d":"93,-25v0,-54,16,-109,16,-163v0,-31,-10,-74,-81,-74r0,-51v71,0,81,-39,81,-75v0,-55,-16,-112,-16,-167v1,-99,68,-136,166,-131r0,55v-68,-4,-97,25,-97,86v0,50,14,96,14,148v0,64,-27,96,-72,108r0,2v45,11,72,45,72,109v0,52,-14,98,-14,148v-1,62,30,91,97,87r0,55v-98,4,-164,-28,-166,-137","w":284},"|":{"d":"86,-750r67,0r0,1000r-67,0r0,-1000","w":239},"}":{"d":"191,-555v0,55,-16,112,-16,167v0,36,10,75,81,75r0,51v-71,0,-81,43,-81,74v0,54,16,109,16,163v-2,109,-69,141,-166,137r0,-55v66,4,98,-25,97,-87v0,-50,-15,-97,-15,-148v0,-64,28,-98,72,-109r0,-2v-44,-12,-72,-44,-72,-108v0,-52,15,-97,15,-148v1,-60,-29,-90,-97,-86r0,-55v98,-4,165,32,166,131","w":284},"~":{"d":"108,-210r-59,0v-4,-100,50,-151,119,-151v42,0,74,13,141,45v51,24,88,42,125,42v36,0,53,-29,54,-84r60,0v5,112,-53,151,-115,151v-40,0,-76,-11,-145,-44v-47,-22,-84,-44,-120,-44v-36,0,-58,25,-60,85","w":596},"\u00a0":{"w":212},"\u00a1":{"d":"164,195r-97,0r14,-477r68,0xm56,-426v0,-36,25,-62,61,-62v34,0,57,26,57,62v0,35,-23,62,-59,62v-35,0,-59,-27,-59,-62","w":230},"\u00a2":{"d":"268,-87v-127,-17,-201,-95,-201,-239v0,-129,79,-227,201,-247r0,-100r62,0r0,98v45,0,86,13,109,25r-20,67v-20,-12,-54,-25,-104,-25v-99,0,-160,80,-160,178v0,111,68,176,156,176v55,0,90,-14,114,-25r16,63v-20,11,-62,27,-111,29r0,101r-62,0r0,-101","w":513},"\u00a3":{"d":"246,-295v12,100,-15,174,-73,220r0,2r298,0r0,73r-415,0r0,-50v87,-46,131,-127,109,-245r-103,0r0,-63r93,0v-5,-30,-11,-69,-11,-108v0,-118,81,-195,192,-195v52,0,88,12,109,25r-20,66v-18,-10,-47,-20,-89,-20v-78,0,-110,54,-110,125v0,43,6,75,12,107r144,0r0,63r-136,0","w":513},"\u00a4":{"d":"142,-493v54,-54,176,-53,230,-1r71,-75r44,46r-78,71v19,27,35,69,35,117v0,55,-17,98,-35,123r75,74r-45,44r-68,-77v-60,57,-171,56,-231,3r-67,74r-43,-44r72,-71v-20,-26,-37,-71,-37,-120v0,-52,18,-95,39,-123r-75,-71r44,-46xm373,-334v0,-69,-41,-138,-119,-137v-73,0,-118,63,-118,141v0,97,67,139,118,139v56,0,119,-40,119,-143","w":513},"\u00a5":{"d":"292,0r-83,0r0,-175r-155,0r0,-50r155,0r0,-72r-155,0r0,-50r130,0r-168,-303r94,0r104,206v16,34,28,61,40,91r3,0v37,-102,100,-202,148,-297r92,0r-179,303r130,0r0,50r-156,0r0,72r156,0r0,50r-156,0r0,175","w":513},"\u00a6":{"d":"86,-174r67,0r0,350r-67,0r0,-350xm86,-674r67,0r0,350r-67,0r0,-350","w":239},"\u00a7":{"d":"176,-429v-32,23,-46,48,-46,79v0,35,27,65,106,94v51,18,91,33,114,48v25,-18,38,-46,38,-77v0,-38,-24,-70,-89,-93v-40,-15,-91,-31,-123,-51xm418,-650r-21,57v-26,-16,-66,-32,-120,-32v-59,0,-104,29,-104,74v0,52,50,71,125,96v92,30,163,68,163,158v0,52,-25,90,-65,121v17,14,38,47,38,88v0,166,-238,181,-347,109r24,-58v24,17,73,41,132,41v64,0,112,-29,112,-82v0,-47,-29,-72,-122,-104v-103,-35,-174,-72,-174,-158v0,-38,20,-83,73,-117v-20,-16,-37,-50,-37,-84v0,-88,82,-142,185,-142v56,0,104,14,138,33","w":519},"\u00a8":{"d":"107,-621v0,27,-20,51,-50,51v-29,0,-50,-24,-50,-51v0,-28,23,-51,51,-51v28,0,49,22,49,51xm292,-621v0,27,-20,51,-50,51v-29,0,-49,-24,-49,-51v0,-28,22,-51,50,-51v28,0,49,22,49,51"},"\u00a9":{"d":"36,-340v0,-170,134,-308,305,-308v168,0,300,138,300,308v0,172,-132,310,-301,310v-170,0,-304,-138,-304,-310xm591,-340v0,-149,-110,-267,-252,-267v-143,0,-253,118,-253,270v0,149,110,265,254,266v141,1,251,-117,251,-269xm474,-493r-12,39v-13,-7,-50,-23,-97,-23v-94,0,-140,60,-140,140v0,78,49,141,141,141v40,0,78,-11,101,-26r12,38v-35,23,-81,31,-123,31v-116,0,-183,-80,-183,-181v0,-114,90,-186,191,-186v52,0,97,15,110,27","w":677},"\u00aa":{"d":"305,-266r-60,0r-6,-42r-2,0v-19,24,-54,47,-101,47v-66,0,-103,-43,-103,-95v0,-72,73,-117,201,-114r0,-10v0,-16,-10,-62,-74,-62v-32,0,-63,9,-86,27r-16,-43v29,-21,71,-33,114,-33v176,2,110,180,133,325xm157,-309v40,-1,78,-28,78,-63r0,-55v-63,-1,-136,10,-136,67v0,33,27,51,58,51","w":346},"\u00ab":{"d":"232,-436r-134,184r134,184r-71,0r-132,-184r132,-184r71,0xm396,-436r-134,184r134,184r-71,0r-132,-184r132,-184r71,0","w":419},"\u00ac":{"d":"40,-399r516,0r0,278r-64,0r0,-218r-452,0r0,-60","w":596},"\u00ad":{"d":"30,-303r247,0r0,65r-247,0r0,-65","w":291},"\u00ae":{"d":"209,-603v50,1,73,9,73,48v0,19,-14,33,-34,39r0,2v16,5,25,18,30,40v5,25,8,35,12,40r-41,0v-5,-6,-10,-20,-13,-39v-4,-24,-24,-28,-52,-26r0,65r-38,0r0,-163v15,-3,36,-6,63,-6xm185,-573r0,47v27,1,56,-1,56,-24v0,-15,-11,-25,-35,-25v-10,0,-17,1,-21,2xm41,-519v0,-91,75,-164,170,-164v94,0,167,73,167,164v0,93,-73,165,-168,165v-94,0,-169,-72,-169,-165xm336,-519v0,-72,-53,-131,-127,-131v-72,0,-126,59,-126,131v0,73,54,131,128,131v72,0,125,-58,125,-131","w":419},"\u00af":{"d":"38,-643r225,0r0,57r-225,0r0,-57"},"\u00b0":{"d":"29,-550v-1,-77,59,-136,134,-136v81,0,131,62,131,130v0,81,-65,134,-134,134v-78,0,-131,-59,-131,-128xm240,-554v0,-38,-22,-86,-80,-85v-51,0,-77,46,-77,88v0,46,34,82,78,82v45,0,79,-36,79,-85","w":318},"\u00b1":{"d":"266,-572r64,0r0,195r226,0r0,60r-226,0r0,200r-64,0r0,-200r-226,0r0,-60r226,0r0,-195xm40,-60r516,0r0,60r-516,0r0,-60","w":596},"\u00b2":{"d":"12,-443r0,-37r63,-59v83,-75,126,-122,126,-173v0,-38,-24,-70,-76,-70v-35,0,-65,18,-84,31r-21,-45v27,-23,72,-42,122,-42v94,0,133,59,133,113v0,84,-93,160,-164,225r0,2r171,0r0,55r-270,0","w":311},"\u00b3":{"d":"45,-760r-17,-47v23,-15,66,-31,115,-31v150,-2,158,150,45,184r0,2v55,8,93,46,93,97v0,62,-56,117,-158,117v-48,0,-92,-13,-114,-28r18,-50v16,11,55,26,93,26v61,0,88,-36,87,-67v-2,-59,-67,-74,-133,-70r0,-46v57,3,119,-7,119,-64v0,-24,-18,-49,-63,-49v-36,0,-69,15,-85,26","w":305},"\u00b4":{"d":"189,-693r97,0r-122,143r-63,0"},"\u00b5":{"d":"403,-75r-3,0v-20,38,-67,84,-139,84v-44,0,-85,-16,-106,-53v0,77,-2,180,11,242r-79,0v-10,-30,-14,-101,-14,-178r0,-504r87,0r0,286v0,75,32,137,109,137v58,0,100,-42,116,-81v5,-13,8,-29,8,-45r0,-297r87,0r0,351v0,53,11,74,46,76r-7,64v-61,14,-106,-9,-116,-82","w":553},"\u00b6":{"d":"293,49r-63,0r0,-313v-88,2,-192,-60,-196,-190v-3,-104,55,-222,275,-222v53,0,92,3,117,9r0,716r-62,0r0,-664r-71,0r0,664","w":512},"\u00b7":{"d":"163,-263v0,36,-24,63,-61,63v-34,0,-59,-27,-58,-63v0,-36,25,-63,60,-63v35,0,59,26,59,63","w":207},"\u00b8":{"d":"136,-2r54,0r-33,52v37,5,70,31,70,69v0,85,-112,97,-172,64r15,-43v16,10,36,15,54,15v22,0,43,-8,43,-32v-1,-26,-31,-38,-78,-42"},"\u00b9":{"d":"177,-443r-70,0r0,-329v-27,10,-49,24,-74,35r-11,-52r94,-44r61,0r0,390","w":244},"\u00ba":{"d":"18,-423v0,-104,75,-168,162,-168v96,0,157,69,157,163v-1,115,-83,167,-160,167v-89,0,-159,-64,-159,-162xm270,-426v0,-50,-27,-116,-94,-115v-63,0,-91,63,-91,116v0,66,43,114,93,114v53,0,92,-46,92,-115","w":355},"\u00bb":{"d":"157,-252r-134,-184r71,0r133,184r-133,184r-70,0xm320,-252r-134,-184r71,0r133,184r-133,184r-70,0","w":419},"\u00bc":{"d":"198,-266r-70,0r0,-329v-27,10,-49,24,-74,35r-11,-52r94,-44r61,0r0,390xm195,11r-57,0r380,-672r56,0xm664,0r-67,0r0,-103r-200,0r0,-39r193,-253r74,0r0,243r60,0r0,49r-60,0r0,103xm597,-152r0,-118v0,-23,2,-44,3,-63r-2,0v-38,71,-85,118,-129,181r128,0","w":759},"\u00bd":{"d":"184,-266r-70,0r0,-329v-27,10,-49,24,-74,35r-11,-52r93,-44r62,0r0,390xm175,11r-56,0r379,-672r56,0xm440,0r0,-37r63,-59v83,-75,126,-122,126,-173v0,-38,-24,-70,-76,-70v-35,0,-65,18,-84,31r-21,-45v27,-23,72,-42,122,-42v95,0,133,59,133,113v0,84,-93,159,-164,225r0,2r171,0r0,55r-270,0","w":759},"\u00be":{"d":"66,-583r-17,-46v23,-16,65,-32,114,-32v151,-2,158,149,47,184r0,2v54,8,92,46,92,97v0,62,-55,117,-157,117v-49,0,-92,-13,-115,-28r18,-50v16,11,55,26,93,26v62,0,88,-36,88,-67v0,-59,-68,-74,-134,-70r0,-46r28,0v37,-1,91,-17,91,-64v0,-24,-18,-49,-64,-49v-36,0,-68,16,-84,26xm232,11r-57,0r380,-672r56,0xm674,0r-66,0r0,-103r-200,0r0,-39r193,-253r73,0r0,243r61,0r0,49r-61,0r0,103xm608,-152r0,-118v0,-23,2,-44,3,-63r-2,0v-38,71,-85,119,-130,180v40,3,87,0,129,1","w":759},"\u00bf":{"d":"178,-425v0,-37,24,-63,60,-63v35,0,58,26,58,63v0,35,-23,62,-59,62v-36,0,-59,-27,-59,-62xm197,-286r78,0v13,76,-3,128,-60,199v-44,55,-69,93,-69,137v0,52,31,86,95,87v35,0,75,-12,101,-32r24,64v-34,23,-91,40,-144,40v-114,0,-167,-71,-167,-148v0,-67,40,-116,87,-173v51,-62,61,-101,55,-174","w":406},"\u00c0":{"d":"424,-212r-239,0r-70,212r-90,0r229,-674r105,0r230,674r-93,0xm203,-280r203,0r-66,-194v-15,-44,-25,-84,-35,-123r-2,0v-26,110,-66,214,-100,317xm161,-827r106,0r93,116r-72,0","w":612},"\u00c1":{"d":"424,-212r-239,0r-70,212r-90,0r229,-674r105,0r230,674r-93,0xm203,-280r203,0r-66,-194v-15,-44,-25,-84,-35,-123r-2,0v-26,110,-66,214,-100,317xm348,-827r106,0r-127,117r-72,0","w":612},"\u00c2":{"d":"424,-212r-239,0r-70,212r-90,0r229,-674r105,0r230,674r-93,0xm203,-280r203,0r-66,-194v-15,-44,-25,-84,-35,-123r-2,0v-26,110,-66,214,-100,317xm277,-824r67,0r104,114r-73,0r-64,-69r-2,0r-64,69r-71,0","w":612},"\u00c3":{"d":"424,-212r-239,0r-70,212r-90,0r229,-674r105,0r230,674r-93,0xm203,-280r203,0r-66,-194v-15,-44,-25,-84,-35,-123r-2,0v-26,110,-66,214,-100,317xm367,-721v-35,0,-78,-38,-108,-38v-16,0,-24,17,-26,44r-47,0v-2,-61,24,-102,68,-102v38,0,71,37,107,38v15,0,24,-7,27,-39r46,0v1,63,-21,97,-67,97","w":612},"\u00c4":{"d":"424,-212r-239,0r-70,212r-90,0r229,-674r105,0r230,674r-93,0xm203,-280r203,0r-66,-194v-15,-44,-25,-84,-35,-123r-2,0v-26,110,-66,214,-100,317xm266,-770v0,28,-19,51,-49,51v-29,0,-48,-23,-48,-51v0,-27,21,-50,49,-50v28,0,48,22,48,50xm452,-770v0,28,-19,51,-50,51v-28,0,-48,-23,-48,-51v0,-27,21,-50,50,-50v28,0,48,22,48,50","w":612},"\u00c5":{"d":"424,-212r-239,0r-70,212r-90,0r229,-674r105,0r230,674r-93,0xm203,-280r203,0r-66,-194v-15,-44,-25,-84,-35,-123r-2,0v-26,110,-66,214,-100,317xm208,-788v0,-50,39,-91,102,-91v60,0,98,40,98,91v0,50,-41,88,-99,88v-61,0,-101,-39,-101,-88xm356,-789v0,-29,-19,-53,-50,-53v-29,0,-46,25,-46,54v0,26,19,51,47,51v30,0,49,-23,49,-52","w":612},"\u00c6":{"d":"89,0r-90,0r308,-674r422,0r0,73r-287,0r26,215r251,0r0,72r-240,0r30,241r247,0r-1,73r-321,0r-30,-238r-207,0xm226,-308r168,0r-34,-303r-4,0v-12,32,-28,70,-43,106","w":788},"\u00c7":{"d":"529,-91r18,69v-31,16,-92,31,-176,32r-24,40v37,7,70,34,70,75v1,85,-113,97,-174,64r14,-45v28,16,98,25,98,-18v0,-26,-31,-37,-78,-42r42,-77v-164,-19,-283,-135,-283,-338v0,-211,143,-354,352,-354v84,0,137,18,160,30r-21,71v-33,-16,-80,-28,-136,-28v-158,0,-263,101,-263,278v0,165,95,271,259,271v53,0,107,-11,142,-28","w":585},"\u00c8":{"d":"425,-388r0,72r-262,0r0,243r292,0r0,73r-379,0r0,-674r364,0r0,73r-277,0r0,213r262,0xm119,-827r106,0r93,116r-72,0","w":492},"\u00c9":{"d":"425,-388r0,72r-262,0r0,243r292,0r0,73r-379,0r0,-674r364,0r0,73r-277,0r0,213r262,0xm302,-827r106,0r-127,117r-72,0","w":492},"\u00ca":{"d":"425,-388r0,72r-262,0r0,243r292,0r0,73r-379,0r0,-674r364,0r0,73r-277,0r0,213r262,0xm224,-824r67,0r104,114r-73,0r-64,-69r-2,0r-64,69r-71,0","w":492},"\u00cb":{"d":"425,-388r0,72r-262,0r0,243r292,0r0,73r-379,0r0,-674r364,0r0,73r-277,0r0,213r262,0xm211,-772v0,28,-19,51,-49,51v-29,0,-48,-23,-48,-51v0,-27,21,-50,49,-50v28,0,48,22,48,50xm397,-772v0,28,-19,51,-50,51v-28,0,-48,-23,-48,-51v0,-27,21,-50,50,-50v28,0,48,22,48,50","w":492},"\u00cc":{"d":"76,-674r87,0r0,674r-87,0r0,-674xm-25,-827r106,0r93,116r-72,0","w":239},"\u00cd":{"d":"76,-674r87,0r0,674r-87,0r0,-674xm160,-827r106,0r-127,117r-72,0","w":239},"\u00ce":{"d":"76,-674r87,0r0,674r-87,0r0,-674xm86,-824r67,0r104,114r-73,0r-64,-69r-2,0r-64,69r-71,0","w":239},"\u00cf":{"d":"76,-674r87,0r0,674r-87,0r0,-674xm76,-772v0,28,-19,51,-49,51v-29,0,-48,-23,-48,-51v0,-27,21,-50,49,-50v28,0,48,22,48,50xm262,-772v0,28,-19,51,-50,51v-28,0,-48,-23,-48,-51v0,-27,21,-50,50,-50v28,0,48,22,48,50","w":239},"\u00d0":{"d":"634,-353v0,236,-145,362,-395,360v-63,0,-114,-2,-158,-7r0,-307r-83,0r0,-70r83,0r0,-290v53,-9,116,-15,185,-15v124,0,214,29,273,84v60,55,95,134,95,245xm348,-377r0,70r-180,0r0,240v22,3,54,4,87,4v188,0,288,-103,288,-289v0,-161,-89,-260,-273,-260v-45,0,-79,4,-102,9r0,226r180,0","w":671},"\u00d1":{"d":"158,0r-82,0r0,-674r95,0r216,341v50,79,89,150,121,219r2,-1v-15,-169,-8,-372,-10,-559r82,0r0,674r-88,0r-214,-342v-47,-75,-92,-152,-126,-225r-3,1v10,163,6,383,7,566xm391,-721v-35,0,-78,-38,-108,-38v-16,0,-24,17,-26,44r-47,0v-2,-61,24,-102,68,-102v38,0,71,37,107,38v15,0,24,-7,27,-39r46,0v1,63,-21,97,-67,97","w":658},"\u00d2":{"d":"349,-685v184,0,303,141,303,341v0,232,-141,355,-313,355v-178,0,-303,-138,-303,-342v0,-214,133,-354,313,-354xm345,-614v-144,0,-216,133,-216,281v0,144,78,273,215,273v138,0,216,-127,216,-280v0,-134,-70,-274,-215,-274xm199,-830r106,0r93,116r-72,0","w":689},"\u00d3":{"d":"349,-685v184,0,303,141,303,341v0,232,-141,355,-313,355v-178,0,-303,-138,-303,-342v0,-214,133,-354,313,-354xm345,-614v-144,0,-216,133,-216,281v0,144,78,273,215,273v138,0,216,-127,216,-280v0,-134,-70,-274,-215,-274xm384,-830r106,0r-127,117r-72,0","w":689},"\u00d4":{"d":"349,-685v184,0,303,141,303,341v0,232,-141,355,-313,355v-178,0,-303,-138,-303,-342v0,-214,133,-354,313,-354xm345,-614v-144,0,-216,133,-216,281v0,144,78,273,215,273v138,0,216,-127,216,-280v0,-134,-70,-274,-215,-274xm310,-827r67,0r104,114r-73,0r-64,-69r-2,0r-64,69r-71,0","w":689},"\u00d5":{"d":"349,-685v184,0,303,141,303,341v0,232,-141,355,-313,355v-178,0,-303,-138,-303,-342v0,-214,133,-354,313,-354xm345,-614v-144,0,-216,133,-216,281v0,144,78,273,215,273v138,0,216,-127,216,-280v0,-134,-70,-274,-215,-274xm401,-723v-35,0,-78,-38,-108,-38v-16,0,-24,17,-26,44r-47,0v-2,-61,24,-102,68,-102v38,0,71,37,107,38v15,0,24,-7,27,-39r46,0v1,63,-21,97,-67,97","w":689},"\u00d6":{"d":"349,-685v184,0,303,141,303,341v0,232,-141,355,-313,355v-178,0,-303,-138,-303,-342v0,-214,133,-354,313,-354xm345,-614v-144,0,-216,133,-216,281v0,144,78,273,215,273v138,0,216,-127,216,-280v0,-134,-70,-274,-215,-274xm300,-772v0,28,-19,51,-49,51v-29,0,-48,-23,-48,-51v0,-27,21,-50,49,-50v28,0,48,22,48,50xm486,-772v0,28,-19,51,-50,51v-28,0,-48,-23,-48,-51v0,-27,21,-50,50,-50v28,0,48,22,48,50","w":689},"\u00d7":{"d":"40,-482r44,-44r214,219r214,-219r44,44r-215,219r215,219r-44,44r-214,-219r-214,219r-44,-44r214,-219","w":596},"\u00d8":{"d":"112,43r-49,-39r62,-88v-56,-60,-89,-149,-89,-249v0,-213,135,-352,311,-352v62,0,120,18,168,53r59,-81r53,36r-62,86v56,61,87,149,87,248v0,235,-145,354,-306,354v-64,0,-123,-19,-171,-54xm175,-157r297,-411v-34,-29,-76,-47,-126,-47v-216,0,-274,302,-171,458xm513,-515r-295,408v33,31,72,48,126,48v203,3,277,-285,172,-456r-3,0","w":689},"\u00d9":{"d":"75,-674r88,0r0,399v0,151,67,215,157,215v100,0,164,-66,164,-215r0,-399r88,0r0,393v0,207,-109,292,-255,292v-138,0,-242,-79,-242,-288r0,-397xm183,-827r106,0r93,116r-72,0","w":647},"\u00da":{"d":"75,-674r88,0r0,399v0,151,67,215,157,215v100,0,164,-66,164,-215r0,-399r88,0r0,393v0,207,-109,292,-255,292v-138,0,-242,-79,-242,-288r0,-397xm367,-827r106,0r-127,117r-72,0","w":647},"\u00db":{"d":"75,-674r88,0r0,399v0,151,67,215,157,215v100,0,164,-66,164,-215r0,-399r88,0r0,393v0,207,-109,292,-255,292v-138,0,-242,-79,-242,-288r0,-397xm296,-824r67,0r104,114r-73,0r-64,-69r-2,0r-64,69r-71,0","w":647},"\u00dc":{"d":"75,-674r88,0r0,399v0,151,67,215,157,215v100,0,164,-66,164,-215r0,-399r88,0r0,393v0,207,-109,292,-255,292v-138,0,-242,-79,-242,-288r0,-397xm282,-772v0,28,-19,51,-49,51v-29,0,-48,-23,-48,-51v0,-27,21,-50,49,-50v28,0,48,22,48,50xm468,-772v0,28,-19,51,-50,51v-28,0,-48,-23,-48,-51v0,-27,21,-50,50,-50v28,0,48,22,48,50","w":647},"\u00dd":{"d":"314,0r-88,0r0,-286r-213,-388r99,0r95,186v26,51,46,92,67,139r2,0v19,-44,42,-88,68,-139r97,-186r99,0r-226,387r0,287xm320,-822r106,0r-127,117r-72,0","w":541},"\u00de":{"d":"258,-550v137,-2,230,63,233,186v4,167,-153,234,-329,208r0,156r-86,0r0,-674r86,0r0,132v27,-5,60,-8,96,-8xm162,-473r0,246v23,4,49,6,75,6v108,0,167,-52,167,-134v0,-87,-62,-126,-154,-126v-40,0,-72,4,-88,8","w":531},"\u00df":{"d":"161,0r-88,0r0,-452v0,-114,27,-178,71,-218v38,-34,86,-51,147,-51v95,0,178,60,178,169v0,35,-12,66,-23,82v-45,19,-72,47,-72,81v0,34,20,55,51,87v40,40,81,82,81,154v0,94,-68,159,-179,159v-37,0,-77,-6,-106,-21r16,-67v26,13,54,20,84,20v64,0,98,-38,98,-84v0,-42,-18,-70,-54,-103v-42,-40,-78,-77,-78,-133v0,-51,32,-95,89,-123v5,-12,9,-26,9,-43v0,-69,-42,-109,-104,-109v-77,0,-120,54,-120,196r0,456","w":548},"\u00e0":{"d":"95,-693r97,0r87,143r-62,0xm413,-297v0,99,-6,211,8,297r-80,0r-7,-61r-3,0v-27,38,-79,72,-148,72v-98,0,-148,-69,-148,-139v0,-117,104,-181,291,-180r0,-10v0,-40,-11,-112,-110,-112v-45,0,-92,14,-126,36r-20,-58v40,-26,98,-43,159,-43v148,0,184,101,184,198xm323,-135v10,-31,3,-74,5,-112v-96,-2,-205,15,-205,109v0,57,38,84,83,84v63,0,103,-40,117,-81","w":482},"\u00e1":{"d":"275,-693r97,0r-122,143r-63,0xm413,-297v0,99,-6,211,8,297r-80,0r-7,-61r-3,0v-27,38,-79,72,-148,72v-98,0,-148,-69,-148,-139v0,-117,104,-181,291,-180r0,-10v0,-40,-11,-112,-110,-112v-45,0,-92,14,-126,36r-20,-58v40,-26,98,-43,159,-43v148,0,184,101,184,198xm323,-135v10,-31,3,-74,5,-112v-96,-2,-205,15,-205,109v0,57,38,84,83,84v63,0,103,-40,117,-81","w":482},"\u00e2":{"d":"206,-693r61,0r96,143r-68,0r-58,-95r-2,0r-58,95r-65,0xm413,-297v0,99,-6,211,8,297r-80,0r-7,-61r-3,0v-27,38,-79,72,-148,72v-98,0,-148,-69,-148,-139v0,-117,104,-181,291,-180r0,-10v0,-40,-11,-112,-110,-112v-45,0,-92,14,-126,36r-20,-58v40,-26,98,-43,159,-43v148,0,184,101,184,198xm323,-135v10,-31,3,-74,5,-112v-96,-2,-205,15,-205,109v0,57,38,84,83,84v63,0,103,-40,117,-81","w":482},"\u00e3":{"d":"293,-574v-33,0,-78,-37,-104,-38v-16,0,-24,17,-26,45r-48,0v-2,-65,25,-104,68,-104v34,0,73,39,104,39v16,0,26,-9,28,-43r47,0v1,67,-22,101,-69,101xm413,-297v0,99,-6,211,8,297r-80,0r-7,-61r-3,0v-27,38,-79,72,-148,72v-98,0,-148,-69,-148,-139v0,-117,104,-181,291,-180r0,-10v0,-40,-11,-112,-110,-112v-45,0,-92,14,-126,36r-20,-58v40,-26,98,-43,159,-43v148,0,184,101,184,198xm323,-135v10,-31,3,-74,5,-112v-96,-2,-205,15,-205,109v0,57,38,84,83,84v63,0,103,-40,117,-81","w":482},"\u00e4":{"d":"198,-621v0,27,-20,51,-50,51v-29,0,-50,-24,-50,-51v0,-28,23,-51,51,-51v28,0,49,22,49,51xm383,-621v0,27,-20,51,-50,51v-29,0,-49,-24,-49,-51v0,-28,22,-51,50,-51v28,0,49,22,49,51xm413,-297v0,99,-6,211,8,297r-80,0r-7,-61r-3,0v-27,38,-79,72,-148,72v-98,0,-148,-69,-148,-139v0,-117,104,-181,291,-180r0,-10v0,-40,-11,-112,-110,-112v-45,0,-92,14,-126,36r-20,-58v40,-26,98,-43,159,-43v148,0,184,101,184,198xm323,-135v10,-31,3,-74,5,-112v-96,-2,-205,15,-205,109v0,57,38,84,83,84v63,0,103,-40,117,-81","w":482},"\u00e5":{"d":"240,-537v-60,0,-101,-40,-101,-91v0,-53,39,-95,102,-95v60,0,99,41,99,94v0,53,-43,92,-100,92xm239,-574v32,0,52,-26,52,-56v0,-30,-20,-55,-52,-55v-31,0,-49,26,-49,57v0,26,20,54,49,54xm413,-297v0,99,-6,211,8,297r-80,0r-7,-61r-3,0v-27,38,-79,72,-148,72v-98,0,-148,-69,-148,-139v0,-117,104,-181,291,-180r0,-10v0,-40,-11,-112,-110,-112v-45,0,-92,14,-126,36r-20,-58v40,-26,98,-43,159,-43v148,0,184,101,184,198xm323,-135v10,-31,3,-74,5,-112v-96,-2,-205,15,-205,109v0,57,38,84,83,84v63,0,103,-40,117,-81","w":482},"\u00e6":{"d":"734,-233r-324,0v-3,115,63,176,154,176v67,0,105,-15,132,-28r16,62v-39,21,-95,34,-159,34v-82,0,-156,-39,-184,-107r-2,0v-31,67,-97,107,-180,107v-101,0,-151,-68,-151,-138v0,-112,104,-177,292,-175r0,-20v0,-24,-15,-108,-113,-108v-46,0,-95,17,-124,37r-21,-58v43,-27,103,-44,151,-44v87,0,136,41,156,102r2,0v33,-63,93,-102,169,-102v148,0,189,143,189,223v0,15,-1,30,-3,39xm324,-137v9,-30,3,-69,5,-106v-93,-2,-206,14,-206,109v0,51,38,80,84,80v63,0,103,-39,117,-83xm409,-296r243,0v3,-49,-24,-136,-113,-136v-87,0,-127,81,-130,136","w":773},"\u00e7":{"d":"403,-84r16,66v-21,11,-67,27,-127,28r-25,40v36,7,70,32,70,73v1,87,-109,99,-174,66r15,-45v28,16,98,26,98,-18v0,-27,-31,-37,-78,-42r42,-77v-123,-15,-202,-110,-202,-244v0,-149,102,-257,260,-257v52,0,98,13,122,25r-20,68v-21,-12,-54,-23,-102,-23v-111,0,-171,82,-171,183v0,112,72,181,168,181v50,0,84,-13,108,-24","w":447},"\u00e8":{"d":"135,-693r97,0r87,143r-62,0xm462,-226r-340,0v2,119,78,168,166,168v63,0,101,-11,134,-25r15,63v-31,14,-84,31,-161,31v-149,0,-238,-99,-238,-245v0,-146,86,-261,227,-261v158,0,200,139,200,228v0,18,-2,32,-3,41xm123,-289r257,0v1,-56,-23,-143,-122,-143v-89,0,-128,82,-135,143","w":501},"\u00e9":{"d":"304,-693r97,0r-122,143r-63,0xm462,-226r-340,0v2,119,78,168,166,168v63,0,101,-11,134,-25r15,63v-31,14,-84,31,-161,31v-149,0,-238,-99,-238,-245v0,-146,86,-261,227,-261v158,0,200,139,200,228v0,18,-2,32,-3,41xm123,-289r257,0v1,-56,-23,-143,-122,-143v-89,0,-128,82,-135,143","w":501},"\u00ea":{"d":"232,-693r61,0r96,143r-68,0r-58,-95r-2,0r-58,95r-65,0xm462,-226r-340,0v2,119,78,168,166,168v63,0,101,-11,134,-25r15,63v-31,14,-84,31,-161,31v-149,0,-238,-99,-238,-245v0,-146,86,-261,227,-261v158,0,200,139,200,228v0,18,-2,32,-3,41xm123,-289r257,0v1,-56,-23,-143,-122,-143v-89,0,-128,82,-135,143","w":501},"\u00eb":{"d":"225,-621v0,27,-20,51,-50,51v-29,0,-50,-24,-50,-51v0,-28,23,-51,51,-51v28,0,49,22,49,51xm410,-621v0,27,-20,51,-50,51v-29,0,-49,-24,-49,-51v0,-28,22,-51,50,-51v28,0,49,22,49,51xm462,-226r-340,0v2,119,78,168,166,168v63,0,101,-11,134,-25r15,63v-31,14,-84,31,-161,31v-149,0,-238,-99,-238,-245v0,-146,86,-261,227,-261v158,0,200,139,200,228v0,18,-2,32,-3,41xm123,-289r257,0v1,-56,-23,-143,-122,-143v-89,0,-128,82,-135,143","w":501},"\u00ec":{"d":"-27,-693r97,0r87,143r-62,0xm161,0r-88,0r0,-484r88,0r0,484","w":234},"\u00ed":{"d":"155,-693r97,0r-122,143r-63,0xm161,0r-88,0r0,-484r88,0r0,484","w":234},"\u00ee":{"d":"86,-693r61,0r96,143r-68,0r-58,-95r-2,0r-58,95r-65,0xm161,0r-88,0r0,-484r88,0r0,484","w":234},"\u00ef":{"d":"74,-621v0,27,-20,51,-50,51v-29,0,-50,-24,-50,-51v0,-28,23,-51,51,-51v28,0,49,22,49,51xm259,-621v0,27,-20,51,-50,51v-29,0,-49,-24,-49,-51v0,-28,22,-51,50,-51v28,0,49,22,49,51xm161,0r-88,0r0,-484r88,0r0,484","w":234},"\u00f0":{"d":"127,-237v0,102,59,182,141,182v87,0,143,-78,143,-188v0,-63,-8,-104,-34,-134v-21,-26,-55,-47,-106,-47v-104,0,-144,107,-144,187xm331,-606v98,82,168,185,170,353v2,186,-118,264,-234,264v-131,0,-229,-96,-229,-247v0,-156,108,-247,223,-248v38,0,75,7,113,43r2,-3v-29,-48,-67,-91,-118,-129r-142,66r-19,-43r116,-55v-30,-22,-67,-42,-104,-60r38,-55v48,22,98,50,141,81r128,-61r21,44","w":541},"\u00f1":{"d":"333,-574v-33,0,-78,-37,-104,-38v-16,0,-24,17,-26,45r-48,0v-2,-65,25,-104,68,-104v34,0,73,39,104,39v16,0,26,-9,28,-43r47,0v1,67,-22,101,-69,101xm285,-422v-71,0,-124,53,-124,131r0,291r-88,0r0,-353v0,-50,-1,-91,-4,-131r78,0r5,80r2,0v24,-46,80,-91,160,-91v67,0,171,40,171,206r0,289r-88,0r0,-279v0,-78,-29,-143,-112,-143","w":555},"\u00f2":{"d":"145,-693r97,0r87,143r-62,0xm278,-495v139,0,233,101,233,249v0,179,-124,257,-241,257v-131,0,-232,-96,-232,-249v0,-162,106,-257,240,-257xm276,-429v-104,0,-149,96,-149,188v0,106,61,186,147,186v84,0,147,-79,147,-188v0,-82,-41,-186,-145,-186","w":549},"\u00f3":{"d":"309,-693r97,0r-122,143r-63,0xm278,-495v139,0,233,101,233,249v0,179,-124,257,-241,257v-131,0,-232,-96,-232,-249v0,-162,106,-257,240,-257xm276,-429v-104,0,-149,96,-149,188v0,106,61,186,147,186v84,0,147,-79,147,-188v0,-82,-41,-186,-145,-186","w":549},"\u00f4":{"d":"243,-693r61,0r96,143r-68,0r-58,-95r-2,0r-58,95r-65,0xm278,-495v139,0,233,101,233,249v0,179,-124,257,-241,257v-131,0,-232,-96,-232,-249v0,-162,106,-257,240,-257xm276,-429v-104,0,-149,96,-149,188v0,106,61,186,147,186v84,0,147,-79,147,-188v0,-82,-41,-186,-145,-186","w":549},"\u00f5":{"d":"329,-574v-33,0,-78,-37,-104,-38v-16,0,-24,17,-26,45r-48,0v-2,-65,25,-104,68,-104v34,0,73,39,104,39v16,0,26,-9,28,-43r47,0v1,67,-22,101,-69,101xm278,-495v139,0,233,101,233,249v0,179,-124,257,-241,257v-131,0,-232,-96,-232,-249v0,-162,106,-257,240,-257xm276,-429v-104,0,-149,96,-149,188v0,106,61,186,147,186v84,0,147,-79,147,-188v0,-82,-41,-186,-145,-186","w":549},"\u00f6":{"d":"231,-621v0,27,-20,51,-50,51v-29,0,-50,-24,-50,-51v0,-28,23,-51,51,-51v28,0,49,22,49,51xm416,-621v0,27,-20,51,-50,51v-29,0,-49,-24,-49,-51v0,-28,22,-51,50,-51v28,0,49,22,49,51xm278,-495v139,0,233,101,233,249v0,179,-124,257,-241,257v-131,0,-232,-96,-232,-249v0,-162,106,-257,240,-257xm276,-429v-104,0,-149,96,-149,188v0,106,61,186,147,186v84,0,147,-79,147,-188v0,-82,-41,-186,-145,-186","w":549},"\u00f7":{"d":"351,-442v0,31,-20,55,-54,55v-31,0,-52,-24,-52,-55v0,-33,22,-56,54,-56v31,0,52,23,52,56xm556,-237r-516,0r0,-60r516,0r0,60xm351,-91v0,31,-20,55,-54,55v-31,0,-52,-24,-52,-55v0,-33,22,-56,54,-56v31,0,52,23,52,56","w":596},"\u00f8":{"d":"38,-239v0,-161,106,-256,239,-256v43,0,86,12,122,34r42,-59r39,27r-42,62v47,45,73,110,73,185v0,178,-123,257,-236,257v-45,0,-89,-11,-124,-34r-43,61r-37,-30r42,-60v-47,-44,-75,-108,-75,-187xm161,-119r198,-281v-22,-18,-50,-29,-85,-29v-108,0,-151,100,-151,188v0,42,11,86,36,121xm389,-361r-198,278v23,20,51,28,81,28v92,0,153,-79,153,-188v0,-33,-8,-80,-34,-118r-2,0","w":549},"\u00f9":{"d":"140,-693r97,0r87,143r-62,0xm478,-484r0,352v0,50,1,94,4,132r-78,0r-5,-79r-2,0v-23,39,-74,90,-160,90v-76,0,-167,-42,-167,-212r0,-283r88,0r0,268v0,92,28,154,108,154v59,0,100,-41,116,-80v5,-13,8,-29,8,-45r0,-297r88,0","w":551},"\u00fa":{"d":"321,-693r97,0r-122,143r-63,0xm478,-484r0,352v0,50,1,94,4,132r-78,0r-5,-79r-2,0v-23,39,-74,90,-160,90v-76,0,-167,-42,-167,-212r0,-283r88,0r0,268v0,92,28,154,108,154v59,0,100,-41,116,-80v5,-13,8,-29,8,-45r0,-297r88,0","w":551},"\u00fb":{"d":"244,-693r61,0r96,143r-68,0r-58,-95r-2,0r-58,95r-65,0xm478,-484r0,352v0,50,1,94,4,132r-78,0r-5,-79r-2,0v-23,39,-74,90,-160,90v-76,0,-167,-42,-167,-212r0,-283r88,0r0,268v0,92,28,154,108,154v59,0,100,-41,116,-80v5,-13,8,-29,8,-45r0,-297r88,0","w":551},"\u00fc":{"d":"235,-621v0,27,-20,51,-50,51v-29,0,-50,-24,-50,-51v0,-28,23,-51,51,-51v28,0,49,22,49,51xm420,-621v0,27,-20,51,-50,51v-29,0,-49,-24,-49,-51v0,-28,22,-51,50,-51v28,0,49,22,49,51xm478,-484r0,352v0,50,1,94,4,132r-78,0r-5,-79r-2,0v-23,39,-74,90,-160,90v-76,0,-167,-42,-167,-212r0,-283r88,0r0,268v0,92,28,154,108,154v59,0,100,-41,116,-80v5,-13,8,-29,8,-45r0,-297r88,0","w":551},"\u00fd":{"d":"285,-693r97,0r-122,143r-63,0xm36,147v69,-24,131,-77,158,-162v0,-5,-2,-12,-6,-23r-179,-446r96,0r106,286v11,32,23,70,31,99r2,0v9,-29,19,-66,31,-101r96,-284r93,0r-132,345v-63,166,-106,251,-166,303v-43,38,-86,53,-108,57","w":471},"\u00fe":{"d":"73,-669r87,0r0,262r2,0v33,-53,86,-88,165,-88v114,-1,204,97,204,247v0,177,-110,259,-220,259v-64,0,-118,-28,-149,-76r-2,0r0,263r-87,0r0,-867xm300,-425v-71,-1,-140,60,-140,145r0,89v5,79,65,134,138,133v87,0,145,-73,145,-189v0,-96,-53,-178,-143,-178","w":569},"\u00ff":{"d":"204,-621v0,27,-20,51,-50,51v-29,0,-50,-24,-50,-51v0,-28,23,-51,51,-51v28,0,49,22,49,51xm389,-621v0,27,-20,51,-50,51v-29,0,-49,-24,-49,-51v0,-28,22,-51,50,-51v28,0,49,22,49,51xm36,147v69,-24,131,-77,158,-162v0,-5,-2,-12,-6,-23r-179,-446r96,0r106,286v11,32,23,70,31,99r2,0v9,-29,19,-66,31,-101r96,-284r93,0r-132,345v-63,166,-106,251,-166,303v-43,38,-86,53,-108,57","w":471},"\u0100":{"d":"424,-212r-239,0r-70,212r-90,0r229,-674r105,0r230,674r-93,0xm203,-280r203,0r-66,-194v-15,-44,-25,-84,-35,-123r-2,0v-26,110,-66,214,-100,317xm185,-788r239,0r0,55r-239,0r0,-55","w":612},"\u0101":{"d":"129,-643r225,0r0,57r-225,0r0,-57xm413,-297v0,99,-6,211,8,297r-80,0r-7,-61r-3,0v-27,38,-79,72,-148,72v-98,0,-148,-69,-148,-139v0,-117,104,-181,291,-180r0,-10v0,-40,-11,-112,-110,-112v-45,0,-92,14,-126,36r-20,-58v40,-26,98,-43,159,-43v148,0,184,101,184,198xm323,-135v10,-31,3,-74,5,-112v-96,-2,-205,15,-205,109v0,57,38,84,83,84v63,0,103,-40,117,-81","w":482},"\u0102":{"d":"424,-212r-239,0r-70,212r-90,0r229,-674r105,0r230,674r-93,0xm203,-280r203,0r-66,-194v-15,-44,-25,-84,-35,-123r-2,0v-26,110,-66,214,-100,317xm181,-817r52,0v5,23,23,49,72,49v49,0,68,-23,73,-49r51,0v-2,59,-39,106,-125,106v-85,0,-121,-46,-123,-106","w":612},"\u0103":{"d":"117,-682r52,0v6,39,31,69,72,69v47,0,69,-36,72,-69r52,0v0,74,-49,124,-124,124v-88,0,-124,-62,-124,-124xm413,-297v0,99,-6,211,8,297r-80,0r-7,-61r-3,0v-27,38,-79,72,-148,72v-98,0,-148,-69,-148,-139v0,-117,104,-181,291,-180r0,-10v0,-40,-11,-112,-110,-112v-45,0,-92,14,-126,36r-20,-58v40,-26,98,-43,159,-43v148,0,184,101,184,198xm323,-135v10,-31,3,-74,5,-112v-96,-2,-205,15,-205,109v0,57,38,84,83,84v63,0,103,-40,117,-81","w":482},"\u0104":{"d":"359,-674r230,674r-36,2v-16,16,-53,57,-53,93v0,32,21,52,51,52v17,0,33,-4,45,-10r14,45v-63,43,-174,28,-174,-63v0,-49,35,-96,59,-123r-71,-208r-239,0r-70,212r-90,0r229,-674r105,0xm203,-280r203,0r-66,-194v-15,-44,-25,-84,-35,-123r-2,0v-26,110,-66,214,-100,317","w":612},"\u0105":{"d":"413,-297v0,97,-6,214,8,297r-25,0v-15,20,-39,61,-39,96v0,54,58,59,94,40r14,46v-62,44,-172,30,-172,-61v0,-50,30,-96,48,-124r-7,-58r-3,0v-27,38,-79,72,-148,72v-98,0,-148,-69,-148,-139v0,-117,104,-181,291,-180r0,-10v0,-40,-11,-112,-110,-112v-45,0,-92,14,-126,36r-20,-58v40,-26,98,-43,159,-43v148,0,184,101,184,198xm323,-135v10,-31,3,-74,5,-112v-96,-2,-205,15,-205,109v0,57,38,84,83,84v63,0,103,-40,117,-81","w":482},"\u0106":{"d":"529,-91r18,69v-32,16,-96,33,-178,33v-190,0,-333,-121,-333,-342v0,-211,143,-354,352,-354v84,0,137,18,160,30r-21,71v-33,-16,-80,-28,-136,-28v-158,0,-263,101,-263,278v0,165,95,271,259,271v53,0,107,-11,142,-28xm400,-829r106,0r-127,117r-72,0","w":580},"\u0107":{"d":"302,-693r97,0r-122,143r-63,0xm403,-84r15,66v-23,12,-74,29,-139,29v-146,0,-241,-100,-241,-248v0,-149,102,-257,260,-257v52,0,98,13,122,25r-20,68v-21,-12,-54,-23,-102,-23v-111,0,-171,82,-171,183v0,112,72,181,168,181v50,0,83,-13,108,-24","w":448},"\u0108":{"d":"529,-91r18,69v-32,16,-96,33,-178,33v-190,0,-333,-121,-333,-342v0,-211,143,-354,352,-354v84,0,137,18,160,30r-21,71v-33,-16,-80,-28,-136,-28v-158,0,-263,101,-263,278v0,165,95,271,259,271v53,0,107,-11,142,-28xm314,-828r67,0r104,114r-73,0r-64,-69r-2,0r-64,69r-71,0","w":580},"\u0109":{"d":"229,-693r61,0r96,143r-68,0r-58,-95r-2,0r-58,95r-65,0xm403,-84r15,66v-23,12,-74,29,-139,29v-146,0,-241,-100,-241,-248v0,-149,102,-257,260,-257v52,0,98,13,122,25r-20,68v-21,-12,-54,-23,-102,-23v-111,0,-171,82,-171,183v0,112,72,181,168,181v50,0,83,-13,108,-24","w":448},"\u010a":{"d":"529,-91r18,69v-32,16,-96,33,-178,33v-190,0,-333,-121,-333,-342v0,-211,143,-354,352,-354v84,0,137,18,160,30r-21,71v-33,-16,-80,-28,-136,-28v-158,0,-263,101,-263,278v0,165,95,271,259,271v53,0,107,-11,142,-28xm397,-770v0,26,-21,51,-50,51v-27,0,-49,-25,-49,-51v0,-26,22,-50,51,-50v27,0,48,24,48,50","w":580},"\u010b":{"d":"314,-621v0,27,-20,51,-50,51v-29,0,-50,-24,-50,-51v0,-29,22,-52,51,-52v28,0,49,23,49,52xm403,-84r15,66v-23,12,-74,29,-139,29v-146,0,-241,-100,-241,-248v0,-149,102,-257,260,-257v52,0,98,13,122,25r-20,68v-21,-12,-54,-23,-102,-23v-111,0,-171,82,-171,183v0,112,72,181,168,181v50,0,83,-13,108,-24","w":448},"\u010c":{"d":"529,-91r18,69v-32,16,-96,33,-178,33v-190,0,-333,-121,-333,-342v0,-211,143,-354,352,-354v84,0,137,18,160,30r-21,71v-33,-16,-80,-28,-136,-28v-158,0,-263,101,-263,278v0,165,95,271,259,271v53,0,107,-11,142,-28xm386,-713r-67,0r-105,-114r74,0r64,69r2,0r63,-69r72,0","w":580},"\u010d":{"d":"294,-550r-64,0r-96,-143r68,0r59,95r2,0r59,-95r66,0xm403,-84r15,66v-23,12,-74,29,-139,29v-146,0,-241,-100,-241,-248v0,-149,102,-257,260,-257v52,0,98,13,122,25r-20,68v-21,-12,-54,-23,-102,-23v-111,0,-171,82,-171,183v0,112,72,181,168,181v50,0,83,-13,108,-24","w":448},"\u010e":{"d":"629,-353v0,236,-144,361,-395,359v-62,0,-114,-3,-158,-8r0,-663v53,-8,116,-14,185,-14v125,0,214,29,273,84v60,55,95,133,95,242xm163,-601r0,532v22,4,54,5,88,5v186,0,287,-104,287,-286v0,-159,-89,-260,-273,-260v-45,0,-79,4,-102,9xm342,-712r-67,0r-105,-114r74,0r64,69r2,0r63,-69r72,0","w":666},"\u010f":{"d":"403,-710r88,0r0,585v0,43,1,92,4,125r-79,0r-4,-84r-2,0v-27,54,-86,95,-165,95v-117,0,-207,-99,-207,-246v-1,-161,99,-260,217,-260v74,0,124,35,146,74r2,0r0,-289xm270,-60v69,0,133,-54,133,-143r0,-84v-1,-82,-53,-139,-131,-139v-91,0,-145,80,-145,187v0,98,48,179,143,179xm572,-522r-37,-29v16,-19,36,-48,36,-89v0,-25,-14,-50,-31,-65r63,-14v18,11,36,40,36,73v0,75,-52,112,-67,124","w":574},"\u0110":{"d":"634,-353v0,236,-145,362,-395,360v-63,0,-114,-2,-158,-7r0,-307r-83,0r0,-70r83,0r0,-290v53,-9,116,-15,185,-15v124,0,214,29,273,84v60,55,95,134,95,245xm348,-377r0,70r-180,0r0,240v22,3,54,4,87,4v188,0,288,-103,288,-289v0,-161,-89,-260,-273,-260v-45,0,-79,4,-102,9r0,226r180,0","w":671},"\u0111":{"d":"568,-552r-77,0r0,427v0,43,1,92,4,125r-79,0r-4,-84r-2,0v-27,54,-86,95,-165,95v-117,0,-207,-99,-207,-246v-1,-161,99,-260,217,-260v74,0,124,35,146,74r2,0r0,-131r-197,0r0,-55r197,0r0,-103r88,0r0,103r77,0r0,55xm270,-60v69,0,133,-54,133,-143r0,-84v-1,-82,-53,-139,-131,-139v-91,0,-145,80,-145,187v0,98,48,179,143,179","w":564},"\u0112":{"d":"425,-388r0,72r-262,0r0,243r292,0r0,73r-379,0r0,-674r364,0r0,73r-277,0r0,213r262,0xm140,-788r239,0r0,55r-239,0r0,-55","w":492},"\u0113":{"d":"141,-643r225,0r0,57r-225,0r0,-57xm462,-226r-340,0v2,119,78,168,166,168v63,0,101,-11,134,-25r15,63v-31,14,-84,31,-161,31v-149,0,-238,-99,-238,-245v0,-146,86,-261,227,-261v158,0,200,139,200,228v0,18,-2,32,-3,41xm123,-289r257,0v1,-56,-23,-143,-122,-143v-89,0,-128,82,-135,143","w":501},"\u0114":{"d":"425,-388r0,72r-262,0r0,243r292,0r0,73r-379,0r0,-674r364,0r0,73r-277,0r0,213r262,0xm130,-825r52,0v5,23,23,49,72,49v49,0,68,-23,73,-49r51,0v-2,59,-39,106,-125,106v-85,0,-121,-46,-123,-106","w":492},"\u0115":{"d":"129,-682r52,0v6,39,31,69,72,69v47,0,69,-36,72,-69r52,0v0,74,-49,124,-124,124v-88,0,-124,-62,-124,-124xm462,-226r-340,0v2,119,78,168,166,168v63,0,101,-11,134,-25r15,63v-31,14,-84,31,-161,31v-149,0,-238,-99,-238,-245v0,-146,86,-261,227,-261v158,0,200,139,200,228v0,18,-2,32,-3,41xm123,-289r257,0v1,-56,-23,-143,-122,-143v-89,0,-128,82,-135,143","w":501},"\u0116":{"d":"425,-388r0,72r-262,0r0,243r292,0r0,73r-379,0r0,-674r364,0r0,73r-277,0r0,213r262,0xm300,-772v0,26,-21,51,-50,51v-27,0,-49,-25,-49,-51v0,-26,22,-50,51,-50v27,0,48,24,48,50","w":492},"\u0117":{"d":"304,-621v0,27,-20,51,-50,51v-29,0,-50,-24,-50,-51v0,-29,22,-52,51,-52v28,0,49,23,49,52xm462,-226r-340,0v2,119,78,168,166,168v63,0,101,-11,134,-25r15,63v-31,14,-84,31,-161,31v-149,0,-238,-99,-238,-245v0,-146,86,-261,227,-261v158,0,200,139,200,228v0,18,-2,32,-3,41xm123,-289r257,0v1,-56,-23,-143,-122,-143v-89,0,-128,82,-135,143","w":501},"\u0118":{"d":"447,138r13,47v-23,14,-50,21,-80,21v-57,0,-92,-29,-92,-81v0,-54,44,-101,80,-125r-292,0r0,-674r364,0r0,73r-277,0r0,213r262,0r0,72r-262,0r0,243r292,0r0,73v-4,0,-10,1,-15,1v-42,26,-83,68,-83,105v-1,43,54,47,90,32","w":492},"\u0119":{"d":"385,136r14,45v-22,16,-51,24,-81,24v-54,0,-90,-29,-90,-79v-1,-50,43,-92,73,-117v-162,15,-263,-90,-263,-243v0,-146,86,-261,227,-261v158,0,200,139,200,228v0,18,-2,32,-3,41r-340,0v2,119,78,168,166,168v63,0,101,-11,134,-25r15,63v-15,7,-37,14,-46,17v-39,17,-94,66,-94,107v0,50,52,47,88,32xm123,-289r257,0v1,-56,-23,-143,-122,-143v-89,0,-128,82,-135,143","w":501},"\u011a":{"d":"425,-388r0,72r-262,0r0,243r292,0r0,73r-379,0r0,-674r364,0r0,73r-277,0r0,213r262,0xm291,-710r-67,0r-105,-114r74,0r64,69r2,0r63,-69r72,0","w":492},"\u011b":{"d":"286,-550r-64,0r-96,-143r68,0r59,95r2,0r59,-95r66,0xm462,-226r-340,0v2,119,78,168,166,168v63,0,101,-11,134,-25r15,63v-31,14,-84,31,-161,31v-149,0,-238,-99,-238,-245v0,-146,86,-261,227,-261v158,0,200,139,200,228v0,18,-2,32,-3,41xm123,-289r257,0v1,-56,-23,-143,-122,-143v-89,0,-128,82,-135,143","w":501},"\u011c":{"d":"589,-354r0,324v-39,14,-116,37,-207,37v-102,0,-186,-26,-252,-89v-58,-56,-94,-146,-94,-251v1,-201,139,-348,365,-348v78,0,139,17,168,31r-21,71v-36,-16,-81,-29,-149,-29v-164,0,-271,102,-271,271v0,171,103,272,260,272v57,0,96,-8,116,-18r0,-201r-137,0r0,-70r222,0xm326,-827r67,0r104,114r-73,0r-64,-69r-2,0r-64,69r-71,0","w":646},"\u011d":{"d":"248,-696r61,0r96,143r-68,0r-58,-95r-2,0r-58,95r-65,0xm490,-484v-7,116,-3,285,-4,414v0,111,-22,178,-69,221v-47,43,-115,58,-176,58v-58,0,-122,-14,-161,-40r22,-67v32,20,82,38,142,38v90,0,156,-47,156,-169r0,-54r-2,0v-27,45,-79,81,-154,81v-120,0,-206,-102,-206,-236v0,-164,107,-257,218,-257v84,0,130,44,151,84r2,0r4,-73r77,0xm270,-69v67,0,130,-54,129,-137v-1,-43,5,-92,-5,-127v-15,-51,-59,-93,-123,-93v-84,0,-144,71,-144,183v0,95,48,174,143,174","w":559},"\u011e":{"d":"589,-354r0,324v-39,14,-116,37,-207,37v-102,0,-186,-26,-252,-89v-58,-56,-94,-146,-94,-251v1,-201,139,-348,365,-348v78,0,139,17,168,31r-21,71v-36,-16,-81,-29,-149,-29v-164,0,-271,102,-271,271v0,171,103,272,260,272v57,0,96,-8,116,-18r0,-201r-137,0r0,-70r222,0xm230,-827r52,0v5,23,23,49,72,49v49,0,68,-23,73,-49r51,0v-2,59,-39,106,-125,106v-85,0,-121,-46,-123,-106","w":646},"\u011f":{"d":"148,-682r52,0v6,39,31,69,72,69v47,0,69,-36,72,-69r52,0v0,74,-49,124,-124,124v-88,0,-124,-62,-124,-124xm490,-484v-7,116,-3,285,-4,414v0,111,-22,178,-69,221v-47,43,-115,58,-176,58v-58,0,-122,-14,-161,-40r22,-67v32,20,82,38,142,38v90,0,156,-47,156,-169r0,-54r-2,0v-27,45,-79,81,-154,81v-120,0,-206,-102,-206,-236v0,-164,107,-257,218,-257v84,0,130,44,151,84r2,0r4,-73r77,0xm270,-69v67,0,130,-54,129,-137v-1,-43,5,-92,-5,-127v-15,-51,-59,-93,-123,-93v-84,0,-144,71,-144,183v0,95,48,174,143,174","w":559},"\u0120":{"d":"589,-354r0,324v-39,14,-116,37,-207,37v-102,0,-186,-26,-252,-89v-58,-56,-94,-146,-94,-251v1,-201,139,-348,365,-348v78,0,139,17,168,31r-21,71v-36,-16,-81,-29,-149,-29v-164,0,-271,102,-271,271v0,171,103,272,260,272v57,0,96,-8,116,-18r0,-201r-137,0r0,-70r222,0xm411,-770v0,26,-21,51,-50,51v-27,0,-49,-25,-49,-51v0,-26,22,-50,51,-50v27,0,48,24,48,50","w":646},"\u0121":{"d":"328,-624v0,27,-20,51,-50,51v-29,0,-50,-24,-50,-51v0,-29,22,-52,51,-52v28,0,49,23,49,52xm490,-484v-7,116,-3,285,-4,414v0,111,-22,178,-69,221v-47,43,-115,58,-176,58v-58,0,-122,-14,-161,-40r22,-67v32,20,82,38,142,38v90,0,156,-47,156,-169r0,-54r-2,0v-27,45,-79,81,-154,81v-120,0,-206,-102,-206,-236v0,-164,107,-257,218,-257v84,0,130,44,151,84r2,0r4,-73r77,0xm270,-69v67,0,130,-54,129,-137v-1,-43,5,-92,-5,-127v-15,-51,-59,-93,-123,-93v-84,0,-144,71,-144,183v0,95,48,174,143,174","w":559},"\u0122":{"d":"589,-354r0,324v-39,14,-116,37,-207,37v-102,0,-186,-26,-252,-89v-58,-56,-94,-146,-94,-251v1,-201,139,-348,365,-348v78,0,139,17,168,31r-21,71v-36,-16,-81,-29,-149,-29v-164,0,-271,102,-271,271v0,171,103,272,260,272v57,0,96,-8,116,-18r0,-201r-137,0r0,-70r222,0xm298,222r-17,-41v39,-7,75,-26,75,-66v0,-23,-16,-46,-34,-60r65,-14v20,13,40,40,40,73v0,74,-67,104,-129,108","w":646},"\u0123":{"d":"490,-484v-7,116,-3,285,-4,414v0,111,-22,178,-69,221v-47,43,-115,58,-176,58v-58,0,-122,-14,-161,-40r22,-67v32,20,82,38,142,38v90,0,156,-47,156,-169r0,-54r-2,0v-27,45,-79,81,-154,81v-120,0,-206,-102,-206,-236v0,-164,107,-257,218,-257v84,0,130,44,151,84r2,0r4,-73r77,0xm270,-69v67,0,130,-54,129,-137v-1,-43,5,-92,-5,-127v-15,-51,-59,-93,-123,-93v-84,0,-144,71,-144,183v0,95,48,174,143,174xm338,-709r17,37v-41,6,-78,25,-78,65v0,23,17,44,35,59r-63,13v-20,-13,-40,-40,-40,-71v0,-71,68,-100,129,-103","w":559},"\u0124":{"d":"76,-674r87,0r0,282r326,0r0,-282r88,0r0,674r-88,0r0,-316r-326,0r0,316r-87,0r0,-674xm293,-824r67,0r104,114r-73,0r-64,-69r-2,0r-64,69r-71,0","w":652},"\u0125":{"d":"163,-408v26,-47,83,-87,153,-87v65,0,169,40,169,207r0,288r-88,0r0,-278v0,-78,-29,-144,-112,-144v-57,0,-102,40,-118,88v-5,12,-6,25,-6,42r0,292r-88,0r0,-710r88,0r0,302r2,0xm87,-843r67,0r104,114r-73,0r-64,-69r-2,0r-64,69r-71,0","w":555},"\u0126":{"d":"636,-479r-57,0r0,479r-88,0r0,-302r-326,0r0,302r-87,0r0,-479r-57,0r0,-58r57,0r0,-137r87,0r0,137r326,0r0,-137r88,0r0,137r57,0r0,58xm491,-377r0,-102r-326,0r0,102r326,0","w":657},"\u0127":{"d":"163,-408v26,-47,83,-87,153,-87v65,0,169,40,169,207r0,288r-88,0r0,-278v0,-78,-29,-144,-112,-144v-57,0,-102,40,-118,88v-5,12,-6,25,-6,42r0,292r-88,0r0,-552r-77,0r0,-55r77,0r0,-103r88,0r0,103r193,0r0,55r-193,0r0,144r2,0","w":555},"\u0128":{"d":"76,-674r87,0r0,674r-87,0r0,-674xm177,-721v-35,0,-78,-38,-108,-38v-16,0,-24,17,-26,44r-47,0v-2,-61,24,-102,68,-102v38,0,71,37,107,38v15,0,24,-7,27,-39r46,0v1,63,-21,97,-67,97","w":239},"\u0129":{"d":"172,-574v-33,0,-78,-37,-104,-38v-16,0,-24,17,-26,45r-48,0v-2,-65,25,-104,68,-104v34,0,73,39,104,39v16,0,26,-9,28,-43r47,0v1,67,-22,101,-69,101xm161,0r-88,0r0,-484r88,0r0,484","w":234},"\u012a":{"d":"76,-674r87,0r0,674r-87,0r0,-674xm1,-788r239,0r0,55r-239,0r0,-55","w":239},"\u012b":{"d":"5,-643r225,0r0,57r-225,0r0,-57xm161,0r-88,0r0,-484r88,0r0,484","w":234},"\u012c":{"d":"76,-674r87,0r0,674r-87,0r0,-674xm-4,-823r52,0v5,23,23,49,72,49v49,0,68,-23,73,-49r51,0v-2,59,-39,106,-125,106v-85,0,-121,-46,-123,-106","w":239},"\u012d":{"d":"-4,-682r52,0v6,39,31,69,72,69v47,0,69,-36,72,-69r52,0v0,74,-49,124,-124,124v-88,0,-124,-62,-124,-124xm161,0r-88,0r0,-484r88,0r0,484","w":234},"\u012e":{"d":"163,-674r0,674r-30,0v-15,21,-41,62,-41,98v0,54,59,61,96,43r14,45v-63,43,-174,28,-174,-63v0,-49,30,-96,48,-123r0,-674r87,0","w":239},"\u012f":{"d":"173,-626v0,30,-22,56,-58,56v-32,0,-54,-26,-54,-56v0,-31,23,-56,56,-56v34,0,56,25,56,56xm161,-484r0,484r-30,0v-15,21,-42,62,-42,98v0,54,60,61,97,43r13,45v-62,43,-173,28,-173,-63v0,-49,29,-96,47,-123r0,-484r88,0","w":234},"\u0130":{"d":"76,-674r87,0r0,674r-87,0r0,-674xm170,-772v0,26,-21,51,-50,51v-27,0,-49,-25,-49,-51v0,-26,22,-50,51,-50v27,0,48,24,48,50","w":239},"\u0131":{"d":"161,0r-88,0r0,-484r88,0r0,484","w":234},"\u0132":{"d":"76,-674r87,0r0,674r-87,0r0,-674xm453,-230r0,-444r87,0r0,451v0,179,-88,234,-204,234v-32,0,-71,-7,-93,-16r13,-71v18,7,44,13,73,13v78,0,124,-35,124,-167","w":609},"\u0133":{"d":"161,0r-88,0r0,-484r88,0r0,484xm117,-675v33,0,54,24,54,55v0,30,-21,54,-56,54v-31,0,-53,-24,-53,-54v0,-31,23,-55,55,-55xm198,211r-9,-69v40,-3,75,-14,96,-37v24,-27,33,-66,33,-182r0,-407r88,0r0,441v0,94,-15,155,-58,199v-39,39,-103,55,-150,55xm363,-675v32,0,53,24,53,55v0,29,-20,54,-55,54v-33,0,-54,-25,-54,-54v0,-31,23,-55,56,-55","w":477},"\u0134":{"d":"214,-230r0,-444r87,0r0,451v0,179,-88,234,-204,234v-32,0,-71,-7,-93,-16r13,-71v18,7,44,13,73,13v78,0,124,-35,124,-167xm220,-824r67,0r104,114r-73,0r-64,-69r-2,0r-64,69r-71,0","w":370},"\u0135":{"d":"-36,211r-9,-69v40,-3,75,-14,96,-37v24,-27,33,-66,33,-182r0,-407r88,0r0,441v0,94,-15,155,-58,199v-39,39,-103,55,-150,55xm91,-686r61,0r96,143r-68,0r-58,-95r-2,0r-58,95r-65,0","w":243},"\u0136":{"d":"76,0r0,-674r87,0r0,325r3,0v82,-115,172,-215,259,-325r108,0r-244,286r263,388r-103,0r-222,-331r-64,74r0,257r-87,0xm215,220r-17,-41v39,-7,75,-26,75,-66v0,-23,-16,-46,-34,-60r65,-14v20,13,40,40,40,73v0,74,-67,104,-129,108","w":542},"\u0137":{"d":"160,-710r0,448r2,0v57,-77,124,-148,185,-222r106,0r-187,199r213,285r-107,0r-167,-232r-45,50r0,182r-87,0r0,-710r87,0xm177,222r-17,-41v39,-6,75,-26,75,-66v0,-23,-16,-46,-34,-60r65,-14v20,13,40,41,40,73v0,74,-67,104,-129,108","w":469},"\u0138":{"d":"160,-484r0,222r2,0v57,-77,124,-148,185,-222r106,0r-187,199r213,285r-107,0r-167,-232r-45,50r0,182r-87,0r0,-484r87,0","w":469},"\u0139":{"d":"76,0r0,-674r87,0r0,601r288,0r0,73r-375,0xm179,-827r106,0r-127,117r-72,0","w":472},"\u013a":{"d":"73,0r0,-710r88,0r0,710r-88,0xm154,-856r106,0r-127,117r-72,0","w":236},"\u013b":{"d":"76,0r0,-674r87,0r0,601r288,0r0,73r-375,0xm187,222r-17,-41v39,-7,75,-26,75,-66v0,-23,-16,-46,-34,-60r65,-14v20,13,40,40,40,73v0,74,-67,104,-129,108","w":472},"\u013c":{"d":"73,0r0,-710r88,0r0,710r-88,0xm52,222r-17,-41v39,-6,75,-26,75,-66v0,-23,-16,-46,-34,-60r65,-14v20,13,40,41,40,73v0,74,-67,104,-129,108","w":236},"\u013d":{"d":"76,0r0,-674r87,0r0,601r288,0r0,73r-375,0xm260,-504r-17,-41v39,-7,75,-26,75,-66v0,-23,-16,-46,-34,-60r65,-14v20,13,40,40,40,73v0,74,-67,104,-129,108","w":472},"\u013e":{"d":"73,0r0,-710r88,0r0,710r-88,0xm240,-522r-39,-29v16,-20,36,-48,36,-89v0,-25,-14,-50,-31,-65r63,-14v17,11,35,40,35,75v0,73,-49,109,-64,122","w":244},"\u013f":{"d":"76,0r0,-674r87,0r0,601r288,0r0,73r-375,0xm390,-371v0,26,-21,51,-50,51v-27,0,-49,-25,-49,-51v0,-26,22,-50,51,-50v27,0,48,24,48,50","w":472},"\u0140":{"d":"73,0r0,-710r88,0r0,710r-88,0xm299,-391v0,26,-19,50,-47,50v-27,0,-47,-24,-47,-50v0,-28,21,-50,48,-50v26,0,46,21,46,50","w":272},"\u0141":{"d":"455,0r-375,0r0,-270r-84,62r0,-68r84,-61r0,-337r87,0r0,277r134,-97r0,69r-134,96r0,256r288,0r0,73","w":476},"\u0142":{"d":"165,0r-88,0r0,-288r-68,58r0,-69r68,-59r0,-352r88,0r0,285r71,-61r0,70r-71,61r0,355","w":242},"\u0143":{"d":"158,0r-82,0r0,-674r95,0r216,341v50,79,89,150,121,219r2,-1v-15,-169,-8,-372,-10,-559r82,0r0,674r-88,0r-214,-342v-47,-75,-92,-152,-126,-225r-3,1v10,163,6,383,7,566xm371,-827r106,0r-127,117r-72,0","w":658},"\u0144":{"d":"318,-693r97,0r-122,143r-63,0xm285,-422v-71,0,-124,53,-124,131r0,291r-88,0r0,-353v0,-50,-1,-91,-4,-131r78,0r5,80r2,0v24,-46,80,-91,160,-91v67,0,171,40,171,206r0,289r-88,0r0,-279v0,-78,-29,-143,-112,-143","w":555},"\u0145":{"d":"158,0r-82,0r0,-674r95,0r216,341v50,79,89,150,121,219r2,-1v-15,-169,-8,-372,-10,-559r82,0r0,674r-88,0r-214,-342v-47,-75,-92,-152,-126,-225r-3,1v10,163,6,383,7,566xm270,221r-17,-41v39,-7,75,-26,75,-66v0,-23,-16,-46,-34,-60r65,-14v20,13,40,40,40,73v0,74,-67,104,-129,108","w":658},"\u0146":{"d":"285,-422v-71,0,-124,53,-124,131r0,291r-88,0r0,-353v0,-50,-1,-91,-4,-131r78,0r5,80r2,0v24,-46,80,-91,160,-91v67,0,171,40,171,206r0,289r-88,0r0,-279v0,-78,-29,-143,-112,-143xm221,221r-17,-41v39,-6,75,-26,75,-66v0,-23,-16,-46,-34,-60r65,-14v20,13,40,41,40,73v0,74,-67,104,-129,108","w":555},"\u0147":{"d":"158,0r-82,0r0,-674r95,0r216,341v50,79,89,150,121,219r2,-1v-15,-169,-8,-372,-10,-559r82,0r0,674r-88,0r-214,-342v-47,-75,-92,-152,-126,-225r-3,1v10,163,6,383,7,566xm364,-705r-67,0r-105,-114r74,0r64,69r2,0r63,-69r72,0","w":658},"\u0148":{"d":"310,-550r-64,0r-96,-143r68,0r59,95r2,0r59,-95r66,0xm285,-422v-71,0,-124,53,-124,131r0,291r-88,0r0,-353v0,-50,-1,-91,-4,-131r78,0r5,80r2,0v24,-46,80,-91,160,-91v67,0,171,40,171,206r0,289r-88,0r0,-279v0,-78,-29,-143,-112,-143","w":555},"\u0149":{"d":"285,-422v-71,0,-124,53,-124,131r0,291r-88,0r0,-353v0,-50,-1,-91,-4,-131r78,0r5,80r2,0v24,-46,80,-91,160,-91v67,0,171,40,171,206r0,289r-88,0r0,-279v0,-78,-29,-143,-112,-143xm56,-536r-38,-29v17,-19,37,-44,37,-82v0,-23,-14,-45,-31,-59r64,-17v17,10,35,37,35,72v0,67,-51,103,-67,115","w":555},"\u014a":{"d":"158,0r-82,0r0,-674r95,0r216,341v50,79,89,150,121,219r2,-1v-15,-169,-8,-372,-10,-559r82,0r0,636v0,143,-65,218,-193,237r-18,-68v80,-16,120,-54,127,-125r-218,-348v-47,-75,-92,-152,-126,-225r-3,1v10,163,6,383,7,566","w":658},"\u014b":{"d":"285,-422v-71,0,-124,53,-124,131r0,291r-88,0r0,-353v0,-50,-1,-91,-4,-131r78,0r5,80r2,0v24,-46,80,-91,160,-91v67,0,171,40,171,206r0,230v0,154,-83,223,-190,238r-17,-70v79,-16,119,-67,119,-160r0,-228v0,-78,-29,-143,-112,-143","w":555},"\u014c":{"d":"349,-685v184,0,303,141,303,341v0,232,-141,355,-313,355v-178,0,-303,-138,-303,-342v0,-214,133,-354,313,-354xm345,-614v-144,0,-216,133,-216,281v0,144,78,273,215,273v138,0,216,-127,216,-280v0,-134,-70,-274,-215,-274xm225,-793r239,0r0,55r-239,0r0,-55","w":689},"\u014d":{"d":"162,-643r225,0r0,57r-225,0r0,-57xm278,-495v139,0,233,101,233,249v0,179,-124,257,-241,257v-131,0,-232,-96,-232,-249v0,-162,106,-257,240,-257xm276,-429v-104,0,-149,96,-149,188v0,106,61,186,147,186v84,0,147,-79,147,-188v0,-82,-41,-186,-145,-186","w":549},"\u014e":{"d":"349,-685v184,0,303,141,303,341v0,232,-141,355,-313,355v-178,0,-303,-138,-303,-342v0,-214,133,-354,313,-354xm345,-614v-144,0,-216,133,-216,281v0,144,78,273,215,273v138,0,216,-127,216,-280v0,-134,-70,-274,-215,-274xm220,-830r52,0v5,23,23,49,72,49v49,0,68,-23,73,-49r51,0v-2,59,-39,106,-125,106v-85,0,-121,-46,-123,-106","w":689},"\u014f":{"d":"150,-682r52,0v6,39,31,69,72,69v47,0,69,-36,72,-69r52,0v0,74,-49,124,-124,124v-88,0,-124,-62,-124,-124xm278,-495v139,0,233,101,233,249v0,179,-124,257,-241,257v-131,0,-232,-96,-232,-249v0,-162,106,-257,240,-257xm276,-429v-104,0,-149,96,-149,188v0,106,61,186,147,186v84,0,147,-79,147,-188v0,-82,-41,-186,-145,-186","w":549},"\u0150":{"d":"349,-685v184,0,303,141,303,341v0,232,-141,355,-313,355v-178,0,-303,-138,-303,-342v0,-214,133,-354,313,-354xm345,-614v-144,0,-216,133,-216,281v0,144,78,273,215,273v138,0,216,-127,216,-280v0,-134,-70,-274,-215,-274xm319,-830r95,0r-111,112r-64,0xm466,-830r96,0r-112,112r-64,0","w":689},"\u0151":{"d":"238,-693r86,0r-110,137r-55,0xm382,-693r86,0r-110,137r-55,0xm278,-495v139,0,233,101,233,249v0,179,-124,257,-241,257v-131,0,-232,-96,-232,-249v0,-162,106,-257,240,-257xm276,-429v-104,0,-149,96,-149,188v0,106,61,186,147,186v84,0,147,-79,147,-188v0,-82,-41,-186,-145,-186","w":549},"\u0152":{"d":"368,-685v58,-1,105,11,152,11r322,0r0,73r-277,0r0,213r261,0r0,73r-261,0r0,242r292,0r0,73r-345,0v-20,0,-42,4,-66,6v-25,3,-51,5,-83,5v-209,0,-327,-150,-327,-343v0,-222,138,-353,332,-353xm477,-73r0,-526v-26,-9,-58,-15,-106,-15v-151,0,-242,113,-242,278v0,164,92,276,250,276v37,0,76,-5,98,-13","w":894},"\u0153":{"d":"824,-227r-329,0v1,110,69,169,161,169v60,0,97,-13,130,-27r16,63v-39,22,-104,33,-157,33v-84,0,-153,-35,-191,-114r-3,0v-36,78,-112,114,-187,114v-128,0,-226,-97,-226,-250v0,-157,102,-256,232,-256v82,0,153,42,183,116r2,0v36,-77,101,-116,176,-116v155,0,196,141,196,227v0,17,-1,32,-3,41xm413,-242v0,-92,-42,-188,-143,-187v-105,0,-143,105,-143,188v0,105,60,186,144,186v85,0,142,-76,142,-187xm495,-290r247,0v1,-54,-22,-141,-118,-141v-87,0,-124,80,-129,141","w":863},"\u0154":{"d":"76,0r0,-665v44,-9,107,-14,167,-14v93,0,153,17,195,55v34,30,53,76,53,128v0,89,-56,148,-127,172r0,3v52,18,83,66,99,136v22,94,38,159,52,185r-90,0v-11,-20,-26,-77,-45,-161v-20,-93,-56,-131,-135,-131r-82,0r0,292r-87,0xm163,-604r0,246r89,0v93,0,152,-51,152,-128v0,-87,-63,-125,-155,-126v-42,0,-72,4,-86,8xm302,-830r106,0r-127,117r-72,0","w":538},"\u0155":{"d":"216,-693r97,0r-122,143r-63,0xm312,-409v-95,-18,-152,53,-152,151r0,258r-87,0r0,-333v0,-57,-1,-106,-4,-151r77,0r3,95r4,0v27,-72,82,-117,159,-103r0,83","w":327},"\u0156":{"d":"76,0r0,-665v44,-9,107,-14,167,-14v93,0,153,17,195,55v34,30,53,76,53,128v0,89,-56,148,-127,172r0,3v52,18,83,66,99,136v22,94,38,159,52,185r-90,0v-11,-20,-26,-77,-45,-161v-20,-93,-56,-131,-135,-131r-82,0r0,292r-87,0xm163,-604r0,246r89,0v93,0,152,-51,152,-128v0,-87,-63,-125,-155,-126v-42,0,-72,4,-86,8xm212,215r-17,-41v39,-7,75,-26,75,-66v0,-23,-16,-46,-34,-60r65,-14v20,13,40,40,40,73v0,74,-67,104,-129,108","w":538},"\u0157":{"d":"312,-409v-95,-18,-152,53,-152,151r0,258r-87,0r0,-333v0,-57,-1,-106,-4,-151r77,0r3,95r4,0v27,-72,82,-117,159,-103r0,83xm60,222r-17,-41v39,-6,75,-26,75,-66v0,-23,-16,-46,-34,-60r65,-14v20,13,40,41,40,73v0,74,-67,104,-129,108","w":327},"\u0158":{"d":"76,0r0,-665v44,-9,107,-14,167,-14v93,0,153,17,195,55v34,30,53,76,53,128v0,89,-56,148,-127,172r0,3v52,18,83,66,99,136v22,94,38,159,52,185r-90,0v-11,-20,-26,-77,-45,-161v-20,-93,-56,-131,-135,-131r-82,0r0,292r-87,0xm163,-604r0,246r89,0v93,0,152,-51,152,-128v0,-87,-63,-125,-155,-126v-42,0,-72,4,-86,8xm297,-713r-67,0r-105,-114r74,0r64,69r2,0r63,-69r72,0","w":538},"\u0159":{"d":"214,-550r-64,0r-96,-143r68,0r59,95r2,0r59,-95r66,0xm312,-409v-95,-18,-152,53,-152,151r0,258r-87,0r0,-333v0,-57,-1,-106,-4,-151r77,0r3,95r4,0v27,-72,82,-117,159,-103r0,83","w":327},"\u015a":{"d":"42,-33r22,-73v39,24,96,44,156,44v89,0,141,-47,141,-115v0,-63,-36,-100,-127,-134v-110,-40,-178,-96,-178,-191v0,-105,87,-183,218,-183v69,0,119,16,149,33r-24,71v-22,-12,-67,-32,-128,-32v-92,0,-127,55,-127,101v0,63,41,94,134,130v114,44,172,99,172,198v0,104,-77,195,-236,195v-65,0,-136,-20,-172,-44xm299,-830r106,0r-127,117r-72,0","w":493},"\u015b":{"d":"244,-693r97,0r-122,143r-63,0xm39,-23r22,-67v26,17,72,35,116,35v64,0,94,-32,94,-72v0,-42,-25,-65,-90,-89v-87,-31,-128,-79,-128,-137v0,-78,63,-142,167,-142v49,0,92,14,119,30r-22,64v-19,-12,-54,-28,-99,-28v-52,0,-81,30,-81,66v0,40,29,58,92,82v84,32,127,74,127,146v0,85,-66,146,-181,146v-53,0,-102,-14,-136,-34","w":396},"\u015c":{"d":"42,-33r22,-73v39,24,96,44,156,44v89,0,141,-47,141,-115v0,-63,-36,-100,-127,-134v-110,-40,-178,-96,-178,-191v0,-105,87,-183,218,-183v69,0,119,16,149,33r-24,71v-22,-12,-67,-32,-128,-32v-92,0,-127,55,-127,101v0,63,41,94,134,130v114,44,172,99,172,198v0,104,-77,195,-236,195v-65,0,-136,-20,-172,-44xm214,-827r67,0r104,114r-73,0r-64,-69r-2,0r-64,69r-71,0","w":493},"\u015d":{"d":"169,-693r61,0r96,143r-68,0r-58,-95r-2,0r-58,95r-65,0xm39,-23r22,-67v26,17,72,35,116,35v64,0,94,-32,94,-72v0,-42,-25,-65,-90,-89v-87,-31,-128,-79,-128,-137v0,-78,63,-142,167,-142v49,0,92,14,119,30r-22,64v-19,-12,-54,-28,-99,-28v-52,0,-81,30,-81,66v0,40,29,58,92,82v84,32,127,74,127,146v0,85,-66,146,-181,146v-53,0,-102,-14,-136,-34","w":396},"\u015e":{"d":"42,-33r22,-73v39,24,96,44,156,44v89,0,141,-47,141,-115v0,-63,-36,-100,-127,-134v-110,-40,-178,-96,-178,-191v0,-105,87,-183,218,-183v69,0,119,16,149,33r-24,71v-22,-12,-67,-32,-128,-32v-92,0,-127,55,-127,101v0,63,41,94,134,130v114,44,172,99,172,198v0,89,-57,168,-175,189r-28,45v38,5,70,33,70,70v0,84,-114,96,-173,63r15,-43v28,18,97,27,97,-17v0,-25,-31,-37,-78,-42r40,-70v-63,1,-135,-18,-176,-44","w":493},"\u015f":{"d":"39,-23r22,-67v26,17,72,35,116,35v64,0,94,-32,94,-72v0,-42,-25,-65,-90,-89v-87,-31,-128,-79,-128,-137v0,-78,63,-142,167,-142v49,0,92,14,119,30r-22,64v-19,-12,-54,-28,-99,-28v-52,0,-81,30,-81,66v0,40,29,58,92,82v84,32,127,74,127,146v0,71,-46,125,-129,141r-28,44v37,5,70,31,70,69v0,85,-111,97,-172,64r15,-43v16,10,36,15,54,15v22,0,43,-8,43,-32v-1,-26,-31,-38,-78,-42r40,-71v-43,0,-91,-10,-132,-33","w":396},"\u0160":{"d":"42,-33r22,-73v39,24,96,44,156,44v89,0,141,-47,141,-115v0,-63,-36,-100,-127,-134v-110,-40,-178,-96,-178,-191v0,-105,87,-183,218,-183v69,0,119,16,149,33r-24,71v-22,-12,-67,-32,-128,-32v-92,0,-127,55,-127,101v0,63,41,94,134,130v114,44,172,99,172,198v0,104,-77,195,-236,195v-65,0,-136,-20,-172,-44xm292,-713r-67,0r-105,-114r74,0r64,69r2,0r63,-69r72,0","w":493},"\u0161":{"d":"235,-550r-64,0r-96,-143r68,0r59,95r2,0r59,-95r66,0xm39,-23r22,-67v26,17,72,35,116,35v64,0,94,-32,94,-72v0,-42,-25,-65,-90,-89v-87,-31,-128,-79,-128,-137v0,-78,63,-142,167,-142v49,0,92,14,119,30r-22,64v-19,-12,-54,-28,-99,-28v-52,0,-81,30,-81,66v0,40,29,58,92,82v84,32,127,74,127,146v0,85,-66,146,-181,146v-53,0,-102,-14,-136,-34","w":396},"\u0162":{"d":"204,0r0,-600r-205,0r0,-74r499,0r0,74r-206,0r0,600r-88,0xm180,222r-17,-41v39,-7,75,-26,75,-66v0,-23,-16,-46,-34,-60r65,-14v20,13,40,40,40,73v0,74,-67,104,-129,108","w":497},"\u0163":{"d":"222,11v-93,0,-129,-61,-129,-164r0,-264r-75,0r0,-67r75,0r0,-89r86,-27r0,116r126,0r0,67r-126,0r0,261v0,60,17,94,66,94v24,0,38,-2,51,-6r4,66v-17,7,-44,13,-78,13xm122,227r-17,-41v39,-6,75,-26,75,-66v0,-23,-16,-46,-34,-60r65,-14v20,13,40,41,40,73v0,74,-67,104,-129,108","w":331},"\u0164":{"d":"204,0r0,-600r-205,0r0,-74r499,0r0,74r-206,0r0,600r-88,0xm282,-710r-67,0r-105,-114r74,0r64,69r2,0r63,-69r72,0","w":497},"\u0165":{"d":"222,11v-93,0,-129,-61,-129,-164r0,-264r-75,0r0,-67r75,0r0,-89r86,-27r0,116r126,0r0,67r-126,0r0,261v0,60,17,94,66,94v24,0,38,-2,51,-6r4,66v-17,7,-44,13,-78,13xm277,-541r-26,-35v17,-13,38,-38,38,-74v0,-23,-14,-45,-30,-59r63,-13v17,11,35,37,35,69v0,68,-56,102,-80,112","w":339},"\u0166":{"d":"498,-600r-206,0r0,222r124,0r0,58r-124,0r0,320r-88,0r0,-320r-124,0r0,-58r124,0r0,-222r-205,0r0,-74r499,0r0,74","w":497},"\u0167":{"d":"222,11v-93,0,-131,-61,-129,-164r0,-95r-67,0r0,-54r67,0r0,-115r-75,0r0,-67r75,0r0,-89r86,-27r0,116r126,0r0,67r-126,0r0,115r98,0r0,54r-98,0r0,96v0,58,19,90,66,90v24,0,38,-2,51,-6r4,66v-17,7,-44,13,-78,13","w":331},"\u0168":{"d":"75,-674r88,0r0,399v0,151,67,215,157,215v100,0,164,-66,164,-215r0,-399r88,0r0,393v0,207,-109,292,-255,292v-138,0,-242,-79,-242,-288r0,-397xm380,-721v-35,0,-78,-38,-108,-38v-16,0,-24,17,-26,44r-47,0v-2,-61,24,-102,68,-102v38,0,71,37,107,38v15,0,24,-7,27,-39r46,0v1,63,-21,97,-67,97","w":647},"\u0169":{"d":"330,-574v-33,0,-78,-37,-104,-38v-16,0,-24,17,-26,45r-48,0v-2,-65,25,-104,68,-104v34,0,73,39,104,39v16,0,26,-9,28,-43r47,0v1,67,-22,101,-69,101xm478,-484r0,352v0,50,1,94,4,132r-78,0r-5,-79r-2,0v-23,39,-74,90,-160,90v-76,0,-167,-42,-167,-212r0,-283r88,0r0,268v0,92,28,154,108,154v59,0,100,-41,116,-80v5,-13,8,-29,8,-45r0,-297r88,0","w":551},"\u016a":{"d":"75,-674r88,0r0,399v0,151,67,215,157,215v100,0,164,-66,164,-215r0,-399r88,0r0,393v0,207,-109,292,-255,292v-138,0,-242,-79,-242,-288r0,-397xm204,-788r239,0r0,55r-239,0r0,-55","w":647},"\u016b":{"d":"163,-643r225,0r0,57r-225,0r0,-57xm478,-484r0,352v0,50,1,94,4,132r-78,0r-5,-79r-2,0v-23,39,-74,90,-160,90v-76,0,-167,-42,-167,-212r0,-283r88,0r0,268v0,92,28,154,108,154v59,0,100,-41,116,-80v5,-13,8,-29,8,-45r0,-297r88,0","w":551},"\u016c":{"d":"75,-674r88,0r0,399v0,151,67,215,157,215v100,0,164,-66,164,-215r0,-399r88,0r0,393v0,207,-109,292,-255,292v-138,0,-242,-79,-242,-288r0,-397xm199,-827r52,0v5,23,23,49,72,49v49,0,68,-23,73,-49r51,0v-2,59,-39,106,-125,106v-85,0,-121,-46,-123,-106","w":647},"\u016d":{"d":"151,-682r52,0v6,39,31,69,72,69v47,0,69,-36,72,-69r52,0v0,74,-49,124,-124,124v-88,0,-124,-62,-124,-124xm478,-484r0,352v0,50,1,94,4,132r-78,0r-5,-79r-2,0v-23,39,-74,90,-160,90v-76,0,-167,-42,-167,-212r0,-283r88,0r0,268v0,92,28,154,108,154v59,0,100,-41,116,-80v5,-13,8,-29,8,-45r0,-297r88,0","w":551},"\u016e":{"d":"75,-674r88,0r0,399v0,151,67,215,157,215v100,0,164,-66,164,-215r0,-399r88,0r0,393v0,207,-109,292,-255,292v-138,0,-242,-79,-242,-288r0,-397xm224,-782v0,-50,39,-91,102,-91v60,0,98,40,98,91v0,50,-41,88,-99,88v-61,0,-101,-39,-101,-88xm372,-783v0,-29,-19,-53,-50,-53v-29,0,-46,25,-46,54v0,26,19,51,47,51v30,0,49,-23,49,-52","w":647},"\u016f":{"d":"276,-537v-60,0,-101,-40,-101,-91v0,-53,39,-95,102,-95v60,0,99,41,99,94v0,53,-43,92,-100,92xm275,-574v32,0,52,-26,52,-56v0,-30,-20,-55,-52,-55v-31,0,-49,26,-49,57v0,26,20,54,49,54xm478,-484r0,352v0,50,1,94,4,132r-78,0r-5,-79r-2,0v-23,39,-74,90,-160,90v-76,0,-167,-42,-167,-212r0,-283r88,0r0,268v0,92,28,154,108,154v59,0,100,-41,116,-80v5,-13,8,-29,8,-45r0,-297r88,0","w":551},"\u0170":{"d":"75,-674r88,0r0,399v0,151,67,215,157,215v100,0,164,-66,164,-215r0,-399r88,0r0,393v0,207,-109,292,-255,292v-138,0,-242,-79,-242,-288r0,-397xm283,-827r95,0r-111,112r-64,0xm430,-827r96,0r-112,112r-64,0","w":647},"\u0171":{"d":"246,-693r86,0r-110,137r-55,0xm390,-693r86,0r-110,137r-55,0xm478,-484r0,352v0,50,1,94,4,132r-78,0r-5,-79r-2,0v-23,39,-74,90,-160,90v-76,0,-167,-42,-167,-212r0,-283r88,0r0,268v0,92,28,154,108,154v59,0,100,-41,116,-80v5,-13,8,-29,8,-45r0,-297r88,0","w":551},"\u0172":{"d":"416,135r13,45v-21,15,-55,24,-82,24v-56,0,-90,-30,-90,-80v0,-44,30,-85,57,-114v-2,0,-4,1,-6,1v-133,-5,-233,-83,-233,-288r0,-397r88,0r0,399v0,151,67,215,157,215v100,0,164,-66,164,-215r0,-399r88,0r0,393v0,172,-77,260,-186,282v-27,25,-61,65,-61,101v-1,48,56,50,91,33","w":647},"\u0173":{"d":"478,-484r0,352v0,50,1,95,4,132r-20,-3v-16,21,-42,62,-42,98v0,33,22,52,51,52v19,0,34,-4,45,-9r14,45v-62,43,-174,28,-174,-63v0,-49,30,-96,48,-123r-5,-76r-2,0v-23,39,-74,90,-160,90v-76,0,-167,-42,-167,-212r0,-283r88,0r0,268v0,92,28,154,108,154v59,0,100,-41,116,-80v5,-13,8,-29,8,-45r0,-297r88,0","w":551},"\u0174":{"d":"277,0r-91,0r-171,-674r92,0r80,341v20,84,38,168,50,233r2,0v34,-179,100,-394,145,-574r91,0r82,342v19,80,37,160,47,231r2,0v14,-74,33,-149,54,-233r89,-340r89,0r-191,674r-91,0r-85,-351v-21,-86,-35,-152,-44,-220r-2,0v-33,180,-102,391,-148,571xm391,-824r67,0r104,114r-73,0r-64,-69r-2,0r-64,69r-71,0","w":846},"\u0175":{"d":"337,-693r61,0r96,143r-68,0r-58,-95r-2,0r-58,95r-65,0xm18,-484r90,0r64,246v14,54,27,104,36,154r3,0v32,-134,82,-270,122,-400r74,0r75,242v18,58,32,109,43,158r3,0v24,-132,72,-272,106,-400r87,0r-156,484r-80,0r-74,-231v-17,-54,-31,-102,-43,-159r-2,0v-30,141,-80,260,-122,390r-80,0","w":736},"\u0176":{"d":"314,0r-88,0r0,-286r-213,-388r99,0r95,186v26,51,46,92,67,139r2,0v19,-44,42,-88,68,-139r97,-186r99,0r-226,387r0,287xm237,-824r67,0r104,114r-73,0r-64,-69r-2,0r-64,69r-71,0","w":541},"\u0177":{"d":"207,-693r61,0r96,143r-68,0r-58,-95r-2,0r-58,95r-65,0xm36,147v69,-24,131,-77,158,-162v0,-5,-2,-12,-6,-23r-179,-446r96,0r106,286v11,32,23,70,31,99r2,0v9,-29,19,-66,31,-101r96,-284r93,0r-132,345v-63,166,-106,251,-166,303v-43,38,-86,53,-108,57","w":471},"\u0178":{"d":"314,0r-88,0r0,-286r-213,-388r99,0r95,186v26,51,46,92,67,139r2,0v19,-44,42,-88,68,-139r97,-186r99,0r-226,387r0,287xm235,-765v0,28,-19,51,-49,51v-29,0,-48,-23,-48,-51v0,-27,21,-50,49,-50v28,0,48,22,48,50xm421,-765v0,28,-19,51,-50,51v-28,0,-48,-23,-48,-51v0,-27,21,-50,50,-50v28,0,48,22,48,50","w":541},"\u0179":{"d":"30,0r0,-51r374,-547r0,-3r-342,0r0,-73r455,0r0,53r-372,545r0,3r377,0r0,73r-492,0xm325,-827r106,0r-127,117r-72,0","w":553},"\u017a":{"d":"260,-693r97,0r-122,143r-63,0xm18,0r0,-51r219,-285r63,-75r0,-2r-262,0r0,-71r369,0r-1,55r-216,281v-20,27,-40,51,-62,76r0,2r283,0r0,70r-393,0","w":428},"\u017b":{"d":"30,0r0,-51r374,-547r0,-3r-342,0r0,-73r455,0r0,53r-372,545r0,3r377,0r0,73r-492,0xm330,-771v0,26,-21,51,-50,51v-27,0,-49,-25,-49,-51v0,-26,22,-50,51,-50v27,0,48,24,48,50","w":553},"\u017c":{"d":"266,-621v0,27,-20,51,-50,51v-29,0,-50,-24,-50,-51v0,-29,22,-52,51,-52v28,0,49,23,49,52xm18,0r0,-51r219,-285r63,-75r0,-2r-262,0r0,-71r369,0r-1,55r-216,281v-20,27,-40,51,-62,76r0,2r283,0r0,70r-393,0","w":428},"\u017d":{"d":"30,0r0,-51r374,-547r0,-3r-342,0r0,-73r455,0r0,53r-372,545r0,3r377,0r0,73r-492,0xm320,-710r-67,0r-105,-114r74,0r64,69r2,0r63,-69r72,0","w":553},"\u017e":{"d":"259,-550r-64,0r-96,-143r68,0r59,95r2,0r59,-95r66,0xm18,0r0,-51r219,-285r63,-75r0,-2r-262,0r0,-71r369,0r-1,55r-216,281v-20,27,-40,51,-62,76r0,2r283,0r0,70r-393,0","w":428},"\u0192":{"d":"111,-338r0,-63r99,0r6,-46v12,-99,56,-214,191,-214v30,0,54,7,68,15r-16,64v-15,-6,-32,-10,-52,-10v-86,-1,-106,101,-112,191r120,0r0,63r-128,0r-24,205v-16,129,-57,217,-174,217v-33,0,-61,-7,-78,-16r16,-63v99,36,138,-17,153,-146r23,-197r-92,0","w":513},"\u01a0":{"d":"344,-60v138,0,216,-127,216,-280v0,-134,-70,-274,-215,-274v-145,0,-216,135,-216,281v0,142,77,273,215,273xm593,-740r68,-13v10,22,18,48,18,82v0,55,-33,96,-105,89v45,52,78,133,78,238v0,232,-141,355,-313,355v-178,0,-303,-138,-303,-342v-1,-252,186,-406,417,-337v31,10,79,36,111,36v63,0,47,-74,29,-108","w":689},"\u01a1":{"d":"276,-429v-104,0,-149,96,-149,188v0,106,61,186,147,186v84,0,147,-79,147,-188v0,-82,-41,-186,-145,-186xm470,-554r67,-12v10,21,17,45,17,73v0,54,-32,90,-93,87v32,40,50,95,50,160v0,179,-124,257,-241,257v-131,0,-232,-96,-232,-249v0,-192,150,-295,323,-243v24,7,54,26,85,26v54,0,43,-69,24,-99","w":553},"\u01af":{"d":"593,-770r67,-12v10,22,17,47,17,75v1,54,-39,87,-105,86r0,340v0,207,-109,292,-255,292v-138,0,-242,-79,-242,-288r0,-397r88,0r0,399v0,151,67,215,157,215v100,0,164,-66,164,-215r0,-399r79,0v64,3,49,-60,30,-96","w":677},"\u01b0":{"d":"489,-581r67,-11v11,20,18,45,18,72v0,54,-41,85,-96,85r0,303v0,50,1,94,4,132r-78,0r-5,-79r-2,0v-23,39,-74,90,-160,90v-76,0,-167,-42,-167,-212r0,-283r88,0r0,268v0,92,28,154,108,154v59,0,100,-41,116,-80v5,-13,8,-29,8,-45r0,-297r69,0v65,2,50,-61,30,-97","w":551},"\u01fa":{"d":"312,-692v-56,0,-91,-34,-91,-77v0,-43,34,-79,92,-79v56,0,89,35,89,79v0,44,-36,77,-90,77xm311,-729v27,0,44,-16,44,-41v0,-23,-17,-42,-45,-42v-27,0,-42,20,-42,43v0,22,17,40,43,40xm366,-952r114,0r-143,86r-77,0xm424,-212r-239,0r-70,212r-90,0r229,-674r105,0r230,674r-93,0xm203,-280r203,0r-66,-194v-15,-44,-25,-84,-35,-123r-2,0v-26,110,-66,214,-100,317","w":612},"\u01fb":{"d":"297,-834r98,0r-143,106r-62,0xm413,-297v0,99,-6,211,8,297r-80,0r-7,-61r-3,0v-27,38,-79,72,-148,72v-98,0,-148,-69,-148,-139v0,-117,104,-181,291,-180r0,-10v0,-40,-11,-112,-110,-112v-45,0,-92,14,-126,36r-20,-58v40,-26,98,-43,159,-43v148,0,184,101,184,198xm323,-135v10,-31,3,-74,5,-112v-96,-2,-205,15,-205,109v0,57,38,84,83,84v63,0,103,-40,117,-81xm241,-520v-60,0,-101,-40,-101,-91v0,-53,39,-95,102,-95v60,0,99,41,99,94v0,53,-43,92,-100,92xm240,-557v32,0,52,-26,52,-56v0,-30,-20,-55,-52,-55v-31,0,-49,26,-49,57v0,26,20,54,49,54","w":482},"\u01fc":{"d":"89,0r-90,0r308,-674r422,0r0,73r-287,0r26,215r251,0r0,72r-240,0r30,241r247,0r-1,73r-321,0r-30,-238r-207,0xm226,-308r168,0r-34,-303r-4,0v-12,32,-28,70,-43,106xm488,-827r106,0r-127,117r-72,0","w":788},"\u01fd":{"d":"429,-693r97,0r-122,143r-63,0xm734,-233r-324,0v-3,115,63,176,154,176v67,0,105,-15,132,-28r16,62v-39,21,-95,34,-159,34v-82,0,-156,-39,-184,-107r-2,0v-31,67,-97,107,-180,107v-101,0,-151,-68,-151,-138v0,-112,104,-177,292,-175r0,-20v0,-24,-15,-108,-113,-108v-46,0,-95,17,-124,37r-21,-58v43,-27,103,-44,151,-44v87,0,136,41,156,102r2,0v33,-63,93,-102,169,-102v148,0,189,143,189,223v0,15,-1,30,-3,39xm324,-137v9,-30,3,-69,5,-106v-93,-2,-206,14,-206,109v0,51,38,80,84,80v63,0,103,-39,117,-83xm409,-296r243,0v3,-49,-24,-136,-113,-136v-87,0,-127,81,-130,136","w":773},"\u01fe":{"d":"112,43r-49,-39r62,-88v-56,-60,-89,-149,-89,-249v0,-213,135,-352,311,-352v62,0,120,18,168,53r59,-81r53,36r-62,86v56,61,87,149,87,248v0,235,-145,354,-306,354v-64,0,-123,-19,-171,-54xm175,-157r297,-411v-34,-29,-76,-47,-126,-47v-216,0,-274,302,-171,458xm513,-515r-295,408v33,31,72,48,126,48v203,3,277,-285,172,-456r-3,0xm392,-835r106,0r-127,117r-72,0","w":689},"\u01ff":{"d":"315,-693r97,0r-122,143r-63,0xm38,-239v0,-161,106,-256,239,-256v43,0,86,12,122,34r42,-59r39,27r-42,62v47,45,73,110,73,185v0,178,-123,257,-236,257v-45,0,-89,-11,-124,-34r-43,61r-37,-30r42,-60v-47,-44,-75,-108,-75,-187xm161,-119r198,-281v-22,-18,-50,-29,-85,-29v-108,0,-151,100,-151,188v0,42,11,86,36,121xm389,-361r-198,278v23,20,51,28,81,28v92,0,153,-79,153,-188v0,-33,-8,-80,-34,-118r-2,0","w":549},"\u0218":{"d":"42,-33r22,-73v39,24,96,44,156,44v89,0,141,-47,141,-115v0,-63,-36,-100,-127,-134v-110,-40,-178,-96,-178,-191v0,-105,87,-183,218,-183v69,0,119,16,149,33r-24,71v-22,-12,-67,-32,-128,-32v-92,0,-127,55,-127,101v0,63,41,94,134,130v114,44,172,99,172,198v0,104,-77,195,-236,195v-65,0,-136,-20,-172,-44xm185,222r-17,-41v39,-7,75,-26,75,-66v0,-23,-16,-46,-34,-60r65,-14v20,13,40,40,40,73v0,74,-67,104,-129,108","w":493},"\u0219":{"d":"39,-23r22,-67v26,17,72,35,116,35v64,0,94,-32,94,-72v0,-42,-25,-65,-90,-89v-87,-31,-128,-79,-128,-137v0,-78,63,-142,167,-142v49,0,92,14,119,30r-22,64v-19,-12,-54,-28,-99,-28v-52,0,-81,30,-81,66v0,40,29,58,92,82v84,32,127,74,127,146v0,85,-66,146,-181,146v-53,0,-102,-14,-136,-34xm136,222r-17,-41v39,-6,75,-26,75,-66v0,-23,-16,-46,-34,-60r65,-14v20,13,40,41,40,73v0,74,-67,104,-129,108","w":396},"\u021a":{"d":"204,0r0,-600r-205,0r0,-74r499,0r0,74r-206,0r0,600r-88,0xm180,222r-17,-41v39,-7,75,-26,75,-66v0,-23,-16,-46,-34,-60r65,-14v20,13,40,40,40,73v0,74,-67,104,-129,108","w":497},"\u021b":{"d":"222,11v-93,0,-129,-61,-129,-164r0,-264r-75,0r0,-67r75,0r0,-89r86,-27r0,116r126,0r0,67r-126,0r0,261v0,60,17,94,66,94v24,0,38,-2,51,-6r4,66v-17,7,-44,13,-78,13xm122,227r-17,-41v39,-6,75,-26,75,-66v0,-23,-16,-46,-34,-60r65,-14v20,13,40,41,40,73v0,74,-67,104,-129,108","w":331},"\u021c":{"d":"63,115r-11,-69v160,-24,297,-110,297,-228v0,-74,-53,-133,-147,-132v-21,0,-60,7,-94,18r-12,-62v113,-26,201,-87,201,-166v0,-54,-46,-91,-111,-91v-54,0,-112,23,-137,36r-18,-59v32,-20,103,-47,171,-47v109,0,183,60,183,147v0,75,-55,133,-123,164r0,3v101,10,179,76,179,183v0,154,-148,276,-378,303","w":480},"\u021d":{"d":"44,209r-9,-68v38,-3,275,-33,275,-188v0,-59,-39,-109,-128,-109v-28,0,-61,7,-88,15r-13,-63v107,-25,185,-65,185,-138v0,-52,-40,-84,-104,-84v-51,0,-100,25,-124,38r-18,-58v37,-24,98,-49,163,-49v101,0,168,54,168,138v0,66,-43,115,-106,140r0,3v92,10,155,69,155,157v0,130,-124,247,-356,266","w":427},"\u0232":{"d":"314,0r-88,0r0,-286r-213,-388r99,0r95,186v26,51,46,92,67,139r2,0v19,-44,42,-88,68,-139r97,-186r99,0r-226,387r0,287xm151,-788r239,0r0,55r-239,0r0,-55","w":541},"\u0233":{"d":"124,-643r225,0r0,57r-225,0r0,-57xm36,147v69,-24,131,-77,158,-162v0,-5,-2,-12,-6,-23r-179,-446r96,0r106,286v11,32,23,70,31,99r2,0v9,-29,19,-66,31,-101r96,-284r93,0r-132,345v-63,166,-106,251,-166,303v-43,38,-86,53,-108,57","w":471},"\u02c6":{"d":"119,-693r61,0r96,143r-68,0r-58,-95r-2,0r-58,95r-65,0"},"\u02c7":{"d":"183,-550r-64,0r-96,-143r68,0r59,95r2,0r59,-95r66,0"},"\u02c9":{"d":"38,-643r225,0r0,57r-225,0r0,-57"},"\u02d8":{"d":"26,-682r52,0v6,39,31,69,72,69v47,0,69,-36,72,-69r52,0v0,74,-49,124,-124,124v-88,0,-124,-62,-124,-124"},"\u02d9":{"d":"189,-621v0,27,-20,51,-50,51v-29,0,-50,-24,-50,-51v0,-29,22,-52,51,-52v28,0,49,23,49,52"},"\u02da":{"d":"142,-537v-60,0,-101,-40,-101,-91v0,-53,39,-95,102,-95v60,0,99,41,99,94v0,53,-43,92,-100,92xm141,-574v32,0,52,-26,52,-56v0,-30,-20,-55,-52,-55v-31,0,-49,26,-49,57v0,26,20,54,49,54"},"\u02db":{"d":"123,-4r57,0v-15,19,-53,62,-53,100v0,31,21,50,50,50v18,0,34,-4,46,-9r14,45v-62,44,-174,27,-174,-63v0,-49,36,-97,60,-123"},"\u02dc":{"d":"205,-574v-33,0,-78,-37,-104,-38v-16,0,-24,17,-26,45r-48,0v-2,-65,25,-104,68,-104v34,0,73,39,104,39v16,0,26,-9,28,-43r47,0v1,67,-22,101,-69,101"},"\u02dd":{"d":"123,-693r86,0r-110,137r-55,0xm267,-693r86,0r-110,137r-55,0"},"\u037e":{"d":"91,117r-61,6v17,-59,39,-166,45,-237r98,-5v-18,78,-58,189,-82,236xm181,-388v0,36,-24,65,-63,65v-36,0,-61,-29,-61,-65v0,-39,26,-67,62,-67v38,0,62,28,62,67","w":217},"\u0384":{"d":"137,-694r89,0r-84,143r-58,0","w":301},"\u0385":{"d":"153,-710r75,0r-49,157r-48,0xm97,-621v0,26,-19,48,-47,48v-27,0,-46,-22,-46,-48v0,-26,21,-47,48,-47v25,0,45,20,45,47xm339,-621v0,26,-18,48,-47,48v-27,0,-46,-22,-46,-48v0,-26,21,-47,47,-47v27,0,46,20,46,47","w":346},"\u0386":{"d":"427,-212r-239,0r-70,212r-90,0r229,-674r105,0r230,674r-93,0xm206,-280r203,0r-66,-194v-15,-44,-25,-84,-35,-123r-2,0v-26,110,-66,214,-100,317xm70,-674r79,0r-35,155r-52,0","w":615},"\u0387":{"d":"172,-319v0,38,-25,68,-65,68v-36,0,-62,-30,-62,-68v0,-40,26,-68,64,-68v38,0,63,28,63,68","w":217},"\u0388":{"d":"494,-388r0,72r-261,0r0,243r292,0r0,73r-380,0r0,-674r365,0r0,73r-277,0r0,213r261,0xm7,-674r80,0r-35,155r-52,0","w":561},"\u0389":{"d":"145,-674r88,0r0,282r325,0r0,-282r88,0r0,674r-88,0r0,-316r-325,0r0,316r-88,0r0,-674xm7,-674r80,0r-35,155r-52,0","w":722},"\u038a":{"d":"145,-674r88,0r0,674r-88,0r0,-674xm7,-674r80,0r-35,155r-52,0","w":309},"\u038c":{"d":"692,-344v0,232,-141,355,-313,355v-179,0,-303,-138,-303,-342v0,-214,132,-354,312,-354v184,0,304,141,304,341xm168,-333v0,142,78,274,216,273v138,0,216,-127,216,-280v0,-134,-70,-274,-215,-274v-145,0,-217,135,-217,281xm7,-674r80,0r-35,155r-52,0","w":728},"\u038e":{"d":"128,-609r16,-71v47,3,117,38,164,91v50,58,91,141,104,247r4,0v17,-108,69,-192,117,-245v47,-50,109,-86,153,-93r16,71v-75,28,-184,124,-232,298v-23,83,-17,203,-18,311r-87,0v-1,-106,6,-223,-14,-310v-41,-181,-135,-279,-223,-299xm7,-674r80,0r-35,155r-52,0","w":707},"\u038f":{"d":"565,-73r0,4r146,0r0,69r-253,0r0,-55v81,-54,150,-158,150,-296v0,-123,-73,-263,-216,-263v-142,0,-221,132,-221,264v0,130,69,246,149,295r0,55r-254,0r0,-69r146,0r0,-4v-68,-55,-132,-154,-132,-284v0,-192,135,-328,314,-328v186,0,304,142,304,320v0,139,-65,238,-133,292xm7,-674r80,0r-35,155r-52,0","w":742},"\u0390":{"d":"161,-484r0,367v0,43,9,61,47,59r-5,64v-76,15,-129,1,-130,-114r0,-376r88,0xm107,-696r75,0r-50,156r-47,0xm50,-607v0,25,-18,46,-46,46v-26,0,-45,-21,-45,-46v0,-26,21,-46,47,-46v25,0,44,20,44,46xm292,-607v0,25,-18,46,-46,46v-26,0,-45,-21,-45,-46v0,-26,20,-46,46,-46v26,0,45,20,45,46","w":236},"\u0391":{"d":"424,-212r-239,0r-70,212r-90,0r229,-674r105,0r230,674r-93,0xm203,-280r203,0r-66,-194v-15,-44,-25,-84,-35,-123r-2,0v-26,110,-66,214,-100,317","w":612},"\u0392":{"d":"76,-2r0,-663v38,-8,98,-14,159,-14v87,0,142,16,185,49v34,27,56,66,56,119v0,65,-43,122,-114,148r0,2v64,16,139,69,139,169v0,58,-22,103,-57,135v-46,44,-123,63,-233,63v-60,0,-106,-4,-135,-8xm163,-606r0,217r79,0v92,0,146,-48,146,-113v0,-79,-60,-110,-148,-110v-40,0,-63,3,-77,6xm163,-323r0,257v113,14,246,-3,246,-127v0,-92,-79,-130,-174,-130r-72,0","w":542},"\u0393":{"d":"76,-674r361,0r0,73r-274,0r0,601r-87,0r0,-674","w":451},"\u0394":{"d":"25,0r0,-49r235,-625r99,0r232,624r0,50r-566,0xm118,-73r376,0r-137,-371v-17,-47,-38,-107,-50,-150r-3,0v-10,34,-28,90,-45,137","w":620},"\u0395":{"d":"425,-388r0,72r-262,0r0,243r292,0r0,73r-379,0r0,-674r364,0r0,73r-277,0r0,213r262,0","w":492},"\u0396":{"d":"30,0r0,-51r374,-547r0,-3r-342,0r0,-73r455,0r0,53r-372,545r0,3r377,0r0,73r-492,0","w":553},"\u0397":{"d":"76,-674r87,0r0,282r326,0r0,-282r88,0r0,674r-88,0r0,-316r-326,0r0,316r-87,0r0,-674","w":652},"\u0398":{"d":"653,-344v0,232,-141,355,-313,355v-179,0,-304,-138,-304,-342v0,-214,133,-354,313,-354v184,0,304,141,304,341xm128,-333v0,142,78,274,217,273v138,0,216,-127,216,-280v0,-134,-70,-274,-215,-274v-146,0,-218,135,-218,281xm209,-383r271,0r0,72r-271,0r0,-72","w":689},"\u0399":{"d":"76,-674r87,0r0,674r-87,0r0,-674","w":239},"\u039a":{"d":"76,0r0,-674r87,0r0,325r3,0v82,-115,172,-215,259,-325r108,0r-244,286r263,388r-103,0r-222,-331r-64,74r0,257r-87,0","w":542},"\u039b":{"d":"590,0r-94,0r-156,-464v-15,-47,-25,-87,-35,-128r-3,0v-10,42,-19,83,-33,127r-153,465r-91,0r229,-674r104,0","w":609},"\u039c":{"d":"661,0r-17,-296v-5,-94,-11,-207,-10,-291r-3,0v-55,187,-138,397,-204,583r-66,0r-109,-321v-32,-95,-59,-182,-78,-262r-2,0v-2,84,-7,197,-13,298r-18,289r-83,0r47,-674r111,0r115,326v28,83,51,157,68,227r3,0v46,-178,129,-380,191,-553r111,0r42,674r-85,0","w":804},"\u039d":{"d":"158,0r-82,0r0,-674r95,0r216,341v50,79,89,150,121,219r2,-1v-15,-169,-8,-372,-10,-559r82,0r0,674r-88,0r-214,-342v-47,-75,-92,-152,-126,-225r-3,1v10,163,6,383,7,566","w":658},"\u039e":{"d":"54,-674r441,0r0,72r-441,0r0,-72xm87,-385r374,0r0,72r-374,0r0,-72xm43,-73r462,0r0,73r-462,0r0,-73","w":540},"\u039f":{"d":"652,-344v0,232,-141,355,-313,355v-178,0,-303,-138,-303,-342v0,-214,133,-354,313,-354v184,0,303,141,303,341xm129,-333v0,142,77,274,215,273v138,0,216,-127,216,-280v0,-134,-70,-274,-215,-274v-145,0,-216,135,-216,281","w":689},"\u03a0":{"d":"558,-674r0,674r-88,0r0,-600r-307,0r0,600r-87,0r0,-674r482,0","w":634},"\u03a1":{"d":"491,-482v2,172,-155,239,-328,212r0,270r-87,0r0,-666v42,-7,97,-13,167,-13v86,0,149,20,189,56v37,32,59,81,59,141xm163,-603r0,262v19,5,43,7,72,7v105,0,169,-51,169,-144v0,-89,-63,-132,-159,-132v-38,0,-67,3,-82,7","w":532},"\u03a3":{"d":"140,-76r0,3r384,0r0,73r-498,0r0,-52r234,-283r-221,-280r0,-59r453,0r0,72r-341,0r0,4r206,260","w":552},"\u03a4":{"d":"204,0r0,-600r-205,0r0,-74r499,0r0,74r-206,0r0,600r-88,0","w":497},"\u03a5":{"d":"10,-609r16,-71v47,3,117,38,164,91v50,58,92,141,104,247r4,0v17,-108,69,-192,117,-245v47,-50,109,-86,154,-93r15,71v-74,28,-183,125,-231,298v-23,83,-18,203,-19,311r-87,0v-2,-106,6,-223,-14,-310v-41,-181,-134,-279,-223,-299","w":588},"\u03a6":{"d":"400,-26r0,52r-84,0r0,-52v-137,-12,-280,-106,-280,-307v0,-207,154,-307,282,-317r0,-50r84,0r0,50v140,11,280,113,280,312v0,200,-140,300,-282,312xm317,-89r0,-498v-87,6,-191,90,-191,252v0,148,93,234,191,246xm401,-587r0,498v96,-9,191,-93,191,-247v0,-160,-96,-242,-191,-251","w":718},"\u03a7":{"d":"546,0r-101,0r-86,-149v-35,-57,-57,-94,-78,-133r-2,0v-19,39,-40,74,-73,134r-81,148r-100,0r206,-341r-198,-333r101,0r89,158v25,44,44,78,62,114r3,0v44,-91,103,-183,153,-272r100,0r-205,328","w":571},"\u03a8":{"d":"639,-674r0,195v0,175,-106,265,-255,273r0,206r-83,0r0,-206v-130,-5,-254,-72,-254,-248r0,-220r85,0r0,205v0,137,70,189,170,194r0,-399r82,0r0,400v89,-5,169,-60,169,-214r0,-186r86,0","w":685},"\u03a9":{"d":"528,-73r0,4r147,0r0,69r-253,0r0,-55v80,-55,149,-162,149,-297v0,-123,-73,-262,-216,-262v-142,0,-221,131,-221,263v0,126,70,246,150,296r0,55r-254,0r0,-69r145,0r0,-4v-67,-55,-132,-155,-132,-285v0,-192,135,-327,314,-327v187,0,304,141,304,319v0,138,-66,237,-133,293","w":705},"\u03aa":{"d":"76,-761v0,26,-20,50,-49,50v-29,0,-49,-24,-49,-50v0,-28,22,-51,50,-51v27,0,48,22,48,51xm260,-761v0,26,-20,50,-50,50v-28,0,-48,-24,-48,-50v0,-28,21,-51,50,-51v27,0,48,22,48,51xm76,-674r87,0r0,674r-87,0r0,-674","w":239},"\u03ab":{"d":"254,-747v0,27,-19,50,-49,50v-28,0,-48,-23,-48,-50v0,-28,22,-50,50,-50v27,0,47,22,47,50xm438,-747v0,27,-19,50,-49,50v-28,0,-48,-23,-48,-50v0,-28,21,-50,49,-50v28,0,48,22,48,50xm10,-609r16,-71v47,3,117,38,164,91v50,58,92,141,104,247r4,0v17,-108,69,-192,117,-245v47,-50,109,-86,154,-93r15,71v-74,28,-183,125,-231,298v-23,83,-18,203,-19,311r-87,0v-2,-106,6,-223,-14,-310v-41,-181,-134,-279,-223,-299","w":588},"\u03ac":{"d":"286,-686r88,0r-83,143r-59,0xm416,-484r73,0v-5,51,-13,217,-13,346v0,57,14,81,48,82r-7,63v-64,15,-105,-11,-113,-98r-3,0v-32,58,-88,102,-165,102v-115,0,-198,-96,-198,-243v0,-158,104,-263,216,-263v70,0,123,36,149,97r4,0v2,-38,5,-62,9,-86xm393,-250v0,-96,-49,-174,-128,-176v-82,-2,-138,82,-138,192v0,91,47,175,131,175v81,0,135,-86,135,-191","w":551},"\u03ad":{"d":"256,-686r89,0r-84,143r-58,0xm159,-257r0,-5v-64,-14,-96,-54,-96,-102v0,-64,64,-131,193,-131v63,0,112,13,147,37r-19,58v-20,-13,-72,-30,-121,-30v-67,0,-112,28,-112,72v0,64,107,73,193,69r0,63r-61,0v-87,0,-152,24,-152,82v0,57,60,88,131,88v53,0,113,-20,142,-37r16,60v-108,67,-380,74,-381,-103v0,-60,49,-110,120,-121","w":440},"\u03ae":{"d":"301,-686r89,0r-84,143r-58,0xm285,-422v-71,0,-124,53,-124,131r0,291r-88,0r0,-353v0,-49,-3,-98,-14,-131r79,0v9,19,14,49,14,80r2,0v24,-46,80,-91,160,-91v67,0,171,40,171,206r0,307v0,56,0,140,10,180r-83,0v-12,-30,-15,-113,-15,-177r0,-300v0,-78,-29,-143,-112,-143","w":555},"\u03af":{"d":"133,-687r89,0r-83,143r-59,0xm161,-484r0,367v0,43,9,61,47,59r-5,64v-76,15,-129,1,-130,-114r0,-376r88,0","w":236},"\u03b0":{"d":"360,-484r82,0v17,32,36,109,36,189v0,142,-46,306,-221,306v-106,0,-190,-63,-190,-195v0,-87,5,-255,-11,-300r84,0v9,11,14,38,14,91r0,197v0,97,57,134,110,134v84,0,128,-86,128,-225v0,-90,-21,-172,-32,-197xm242,-696r75,0r-49,157r-47,0xm185,-607v0,25,-18,47,-45,47v-27,0,-46,-22,-46,-47v0,-25,21,-46,47,-46v25,0,44,20,44,46xm428,-607v0,25,-18,47,-47,47v-25,0,-44,-22,-44,-47v0,-25,20,-46,46,-46v26,0,45,20,45,46","w":524},"\u03b1":{"d":"416,-484r73,0v-5,51,-13,217,-13,346v0,57,14,81,48,82r-7,63v-64,15,-105,-11,-113,-98r-3,0v-32,58,-88,102,-165,102v-115,0,-198,-96,-198,-243v0,-158,104,-263,216,-263v70,0,123,36,149,97r4,0v2,-38,5,-62,9,-86xm393,-250v0,-96,-49,-174,-128,-176v-82,-2,-138,82,-138,192v0,91,47,175,131,175v81,0,135,-86,135,-191","w":551},"\u03b2":{"d":"159,-50r-2,0v0,80,-2,185,11,248r-82,0v-12,-32,-15,-100,-15,-170r0,-461v0,-138,37,-199,75,-235v34,-32,78,-53,142,-53v99,0,175,70,175,174v0,76,-43,133,-89,156r0,4v76,16,148,80,148,191v0,134,-102,207,-209,207v-67,0,-117,-22,-154,-61xm434,-196v0,-105,-78,-153,-183,-148r0,-60v6,0,11,-1,17,-2v76,-5,114,-64,114,-128v0,-71,-43,-117,-102,-117v-81,0,-124,70,-124,208r0,306v23,37,72,80,141,80v80,0,137,-59,137,-139","w":560},"\u03b3":{"d":"269,198r-86,0v3,-92,4,-188,-18,-284v-37,-160,-122,-323,-171,-398r99,0v44,66,117,228,147,377r4,0v48,-92,124,-235,113,-377r83,0v2,9,3,21,3,33v0,124,-78,284,-171,425v-6,8,-6,15,-6,24v3,57,3,132,3,200","w":464},"\u03b4":{"d":"466,-673r-26,58v-21,-15,-77,-40,-132,-40v-55,0,-82,21,-82,45v0,26,27,45,72,81r82,66v80,61,128,131,128,227v0,150,-105,247,-235,247v-125,0,-235,-88,-235,-243v0,-124,85,-206,184,-253r0,-5v-34,-27,-84,-57,-84,-118v0,-54,55,-113,168,-113v70,0,131,25,160,48xm326,-402r-53,-42v-76,40,-146,105,-146,211v0,113,75,178,151,178v77,0,142,-65,142,-175v0,-68,-32,-124,-94,-172","w":546},"\u03b5":{"d":"159,-258r0,-4v-64,-14,-96,-54,-96,-102v0,-64,64,-131,193,-131v63,0,112,13,147,37r-19,58v-20,-13,-72,-30,-121,-30v-67,0,-112,28,-112,72v0,64,107,73,193,69r0,63r-61,0v-87,0,-152,24,-152,82v0,57,60,88,131,88v53,0,113,-20,142,-37r16,60v-108,67,-380,74,-381,-103v0,-60,49,-110,120,-122","w":440},"\u03b6":{"d":"316,16v-145,-21,-278,-71,-277,-249v0,-138,90,-301,244,-406r0,-4v-63,-1,-141,4,-187,-10r9,-59v82,8,197,3,289,4r13,62v-160,81,-279,251,-279,397v0,164,130,187,264,205v5,1,9,6,9,12v0,58,-33,140,-60,175r-58,-17v14,-23,31,-84,33,-110","w":409},"\u03b7":{"d":"285,-422v-71,0,-124,53,-124,131r0,291r-88,0r0,-353v0,-49,-3,-98,-14,-131r79,0v9,19,14,49,14,80r2,0v24,-46,80,-91,160,-91v67,0,171,40,171,206r0,307v0,56,0,140,10,180r-83,0v-12,-30,-15,-113,-15,-177r0,-300v0,-78,-29,-143,-112,-143","w":555},"\u03b8":{"d":"497,-361v0,225,-73,372,-229,372v-142,0,-230,-125,-230,-372v0,-204,83,-360,234,-360v154,0,225,145,225,360xm125,-399r285,0v-1,-142,-46,-257,-143,-257v-89,0,-142,121,-142,257xm410,-333r-285,0v0,178,60,279,146,279v94,0,139,-116,139,-279","w":534},"\u03b9":{"d":"161,-484r0,367v0,43,9,61,47,59r-5,64v-76,15,-129,1,-130,-114r0,-376r88,0","w":236},"\u03ba":{"d":"250,-262r0,3v86,26,175,178,237,259r-102,0v-54,-68,-137,-212,-216,-215r-8,0r0,215r-88,0r0,-379v0,-39,-3,-87,-11,-105r85,0v21,37,12,150,14,215r4,0v87,-82,155,-157,212,-215r103,0r0,4","w":493},"\u03bb":{"d":"364,0r-98,-277v-11,-33,-22,-66,-32,-105r-5,0v-36,132,-88,256,-130,382r-92,0r175,-448v8,-24,8,-24,0,-49v-31,-85,-68,-152,-127,-152v-5,0,-11,0,-17,1r9,-68v8,-2,22,-4,33,-4v95,0,140,91,192,228r185,492r-93,0","w":472},"\u03bc":{"d":"403,-75r-3,0v-20,38,-67,84,-139,84v-44,0,-85,-16,-106,-53v0,77,-2,180,11,242r-79,0v-10,-30,-14,-101,-14,-178r0,-504r87,0r0,286v0,75,32,137,109,137v58,0,100,-42,116,-81v5,-13,8,-29,8,-45r0,-297r87,0r0,351v0,53,11,74,46,76r-7,64v-61,14,-106,-9,-116,-82","w":553},"\u03bd":{"d":"4,-484r93,0r93,272v16,43,28,84,42,126r3,0v45,-95,140,-253,124,-398r83,0v1,10,3,23,3,36v0,137,-93,301,-181,448r-83,0","w":469},"\u03be":{"d":"361,-435r0,64r-27,0v-139,0,-204,68,-204,151v0,81,55,126,154,152v47,13,93,19,133,25v6,0,9,5,9,11v0,52,-31,140,-59,175r-58,-17v13,-23,31,-85,32,-110v-133,-19,-303,-59,-303,-228v0,-97,70,-171,157,-195r0,-5v-74,-23,-111,-75,-111,-141v0,-83,69,-168,209,-168v53,0,95,11,122,27r-18,61v-20,-11,-57,-23,-99,-23v-84,0,-126,53,-126,109v0,70,62,109,141,112r48,0","w":433},"\u03bf":{"d":"511,-246v0,179,-124,257,-241,257v-131,0,-232,-96,-232,-249v0,-162,106,-257,240,-257v139,0,233,101,233,249xm127,-241v0,106,61,186,147,186v84,0,147,-79,147,-188v0,-82,-41,-186,-145,-186v-104,0,-149,96,-149,188","w":549},"\u03c0":{"d":"520,-415r-67,0v2,124,-9,327,14,415r-85,0v-8,-15,-15,-58,-15,-135r0,-280r-159,0v-4,127,-33,335,-68,415r-84,0v36,-95,64,-287,68,-415v-39,0,-74,2,-99,9r-12,-52v22,-15,62,-26,139,-26r378,0","w":555},"\u03c1":{"d":"158,-60r-3,0r0,78v0,56,1,140,8,180r-84,0v-18,-86,-11,-282,-11,-400v0,-125,32,-181,70,-221v37,-40,93,-72,166,-72v135,0,221,101,221,246v0,171,-107,260,-221,260v-63,0,-118,-26,-146,-71xm155,-231v1,27,-2,54,4,76v16,55,69,97,131,97v93,0,147,-81,147,-189v0,-95,-50,-175,-140,-175v-69,0,-142,57,-142,191","w":563},"\u03c2":{"d":"319,17v-153,-21,-281,-80,-281,-251v0,-130,93,-261,261,-261v43,0,84,8,109,22r-20,64v-24,-10,-51,-18,-89,-18v-104,0,-172,86,-172,185v0,95,50,147,137,172v48,14,83,19,129,26v7,2,10,5,10,15v0,55,-32,140,-58,173r-59,-18v14,-23,31,-85,33,-109","w":417},"\u03c3":{"d":"412,-432r0,4v57,39,90,110,90,183v0,178,-122,256,-232,256v-131,0,-232,-95,-232,-248v0,-162,103,-258,249,-258r255,0r-3,67v-23,0,-56,-1,-127,-4xm127,-241v0,106,61,186,146,186v79,0,142,-80,142,-190v0,-82,-42,-184,-142,-184v-101,0,-146,96,-146,188","w":554},"\u03c4":{"d":"321,-60r-4,63v-10,5,-30,8,-48,8v-78,0,-112,-48,-112,-150r0,-276v-49,-1,-128,1,-151,8r-12,-51v17,-12,53,-26,132,-26r279,0r-11,69r-150,0r0,274v3,77,27,86,77,81","w":413},"\u03c5":{"d":"360,-484r82,0v17,32,36,109,36,189v0,142,-46,306,-221,306v-106,0,-190,-63,-190,-195v0,-87,5,-255,-11,-300r84,0v9,11,14,38,14,91r0,197v0,97,57,134,110,134v84,0,128,-86,128,-225v0,-90,-21,-172,-32,-197","w":524},"\u03c6":{"d":"204,-498r34,49v-51,32,-113,98,-113,202v0,97,52,176,157,193r0,-294v0,-103,58,-146,124,-145v95,1,197,91,197,239v0,166,-118,252,-240,264r0,188r-81,0r0,-188v-120,-9,-244,-84,-244,-255v0,-140,100,-225,166,-253xm363,-361r0,307v95,-13,156,-86,156,-199v0,-98,-58,-176,-114,-176v-25,0,-42,22,-42,68","w":642},"\u03c7":{"d":"18,-484r94,0r123,261r4,0r123,-261r86,0r-171,327r176,348r-82,22r-144,-296r-4,0r-46,103r-91,193r-75,-23r173,-346","w":457},"\u03c8":{"d":"295,198r0,-187v-123,-8,-228,-64,-228,-251v0,-77,5,-185,-8,-244r81,0v20,38,12,169,12,236v0,142,68,190,144,195r0,-558r80,0r0,558v87,-4,149,-94,149,-233v0,-100,-23,-177,-36,-198r81,0v20,32,39,101,39,191v0,144,-61,295,-233,304r0,